svm_type c_svc
kernel_type rbf
gamma 2.0
nr_class 2
total_sv 1577
rho 0.5151709031795073
label 1 -1
nr_sv 390 1187
SV
1.515217705271458 5:1.0 11:1.0 15:1.0 32:1.0 39:1.0 40:1.0 52:1.0 63:1.0 67:1.0 73:1.0 74:1.0 76:1.0 78:1.0 83:1.0 
1.5062125109903557 5:1.0 18:1.0 19:1.0 39:1.0 40:1.0 63:1.0 67:1.0 73:1.0 74:1.0 76:1.0 80:1.0 83:1.0 
1.5150258741651188 5:1.0 6:1.0 14:1.0 27:1.0 35:1.0 42:1.0 57:1.0 64:1.0 67:1.0 73:1.0 74:1.0 76:1.0 82:1.0 83:1.0 
1.5153608516722865 3:1.0 6:1.0 17:1.0 19:1.0 39:1.0 42:1.0 50:1.0 64:1.0 70:1.0 72:1.0 74:1.0 76:1.0 82:1.0 83:1.0 
1.5150138971468674 4:1.0 6:1.0 14:1.0 29:1.0 39:1.0 42:1.0 47:1.0 64:1.0 67:1.0 73:1.0 74:1.0 76:1.0 79:1.0 83:1.0 
1.5600332558007668 5:1.0 6:1.0 15:1.0 22:1.0 36:1.0 40:1.0 49:1.0 63:1.0 67:1.0 73:1.0 74:1.0 76:1.0 80:1.0 83:1.0 
1.5157838819338283 3:1.0 6:1.0 16:1.0 21:1.0 35:1.0 40:1.0 54:1.0 63:1.0 67:1.0 73:1.0 75:1.0 76:1.0 81:1.0 83:1.0 
1.5150878422716683 5:1.0 6:1.0 16:1.0 32:1.0 39:1.0 40:1.0 52:1.0 63:1.0 67:1.0 73:1.0 74:1.0 77:1.0 82:1.0 83:1.0 
1.5143366001406229 5:1.0 7:1.0 18:1.0 19:1.0 39:1.0 40:1.0 50:1.0 63:1.0 67:1.0 73:1.0 74:1.0 76:1.0 80:1.0 87:1.0 
1.5139163477195308 4:1.0 6:1.0 15:1.0 19:1.0 39:1.0 40:1.0 48:1.0 63:1.0 67:1.0 73:1.0 75:1.0 76:1.0 80:1.0 83:1.0 
1.5153717967290488 4:1.0 7:1.0 17:1.0 29:1.0 39:1.0 40:1.0 51:1.0 63:1.0 67:1.0 73:1.0 74:1.0 76:1.0 81:1.0 83:1.0 
1.472473348460191 5:1.0 6:1.0 15:1.0 22:1.0 36:1.0 40:1.0 50:1.0 63:1.0 67:1.0 73:1.0 74:1.0 76:1.0 82:1.0 83:1.0 
1.51495464781466 5:1.0 6:1.0 15:1.0 20:1.0 37:1.0 40:1.0 57:1.0 63:1.0 67:1.0 73:1.0 74:1.0 76:1.0 78:1.0 83:1.0 
1.504688140082785 3:1.0 6:1.0 17:1.0 22:1.0 36:1.0 40:1.0 51:1.0 63:1.0 67:1.0 73:1.0 74:1.0 76:1.0 80:1.0 83:1.0 
1.5055680204809092 3:1.0 6:1.0 18:1.0 22:1.0 36:1.0 40:1.0 51:1.0 63:1.0 67:1.0 73:1.0 74:1.0 76:1.0 82:1.0 83:1.0 
1.5425014225652414 2:1.0 6:1.0 18:1.0 22:1.0 36:1.0 40:1.0 50:1.0 63:1.0 67:1.0 73:1.0 74:1.0 76:1.0 82:1.0 83:1.0 
1.5151968301240342 4:1.0 6:1.0 16:1.0 19:1.0 39:1.0 40:1.0 52:1.0 61:1.0 67:1.0 72:1.0 75:1.0 76:1.0 78:1.0 83:1.0 
1.5143236338955794 2:1.0 6:1.0 16:1.0 20:1.0 37:1.0 40:1.0 47:1.0 63:1.0 67:1.0 73:1.0 75:1.0 76:1.0 80:1.0 83:1.0 
1.5143691406957043 4:1.0 6:1.0 16:1.0 22:1.0 36:1.0 40:1.0 49:1.0 61:1.0 71:1.0 72:1.0 74:1.0 76:1.0 80:1.0 83:1.0 
1.515091139337477 4:1.0 6:1.0 14:1.0 20:1.0 37:1.0 40:1.0 47:1.0 63:1.0 67:1.0 73:1.0 74:1.0 76:1.0 78:1.0 83:1.0 
1.5144567651920453 5:1.0 10:1.0 16:1.0 29:1.0 39:1.0 40:1.0 52:1.0 63:1.0 67:1.0 73:1.0 74:1.0 76:1.0 80:1.0 83:1.0 
1.5134445792629734 3:1.0 7:1.0 18:1.0 19:1.0 39:1.0 40:1.0 50:1.0 63:1.0 67:1.0 73:1.0 74:1.0 76:1.0 81:1.0 83:1.0 
1.4579480271589822 5:1.0 6:1.0 15:1.0 19:1.0 39:1.0 40:1.0 51:1.0 63:1.0 67:1.0 73:1.0 75:1.0 76:1.0 82:1.0 83:1.0 
1.4843948953549213 3:1.0 6:1.0 17:1.0 19:1.0 39:1.0 40:1.0 52:1.0 63:1.0 67:1.0 73:1.0 75:1.0 76:1.0 82:1.0 83:1.0 
1.5131724616436752 5:1.0 9:1.0 14:1.0 22:1.0 36:1.0 40:1.0 51:1.0 63:1.0 67:1.0 73:1.0 75:1.0 76:1.0 80:1.0 83:1.0 
32.0 2:1.0 6:1.0 14:1.0 22:1.0 36:1.0 40:1.0 48:1.0 63:1.0 67:1.0 73:1.0 74:1.0 76:1.0 80:1.0 83:1.0 
1.4835357022093585 3:1.0 6:1.0 17:1.0 19:1.0 39:1.0 40:1.0 51:1.0 63:1.0 67:1.0 73:1.0 75:1.0 76:1.0 80:1.0 83:1.0 
1.5151339901672916 5:1.0 10:1.0 17:1.0 21:1.0 35:1.0 40:1.0 48:1.0 63:1.0 71:1.0 73:1.0 74:1.0 76:1.0 80:1.0 83:1.0 
1.4631367065556584 4:1.0 6:1.0 15:1.0 22:1.0 36:1.0 40:1.0 50:1.0 63:1.0 67:1.0 73:1.0 74:1.0 76:1.0 82:1.0 83:1.0 
1.5153864616832102 5:1.0 6:1.0 17:1.0 25:1.0 38:1.0 40:1.0 51:1.0 63:1.0 67:1.0 73:1.0 74:1.0 76:1.0 80:1.0 88:1.0 
1.5145038058969966 3:1.0 6:1.0 17:1.0 29:1.0 39:1.0 40:1.0 52:1.0 63:1.0 67:1.0 73:1.0 74:1.0 76:1.0 79:1.0 83:1.0 
1.515428881723163 2:1.0 10:1.0 18:1.0 32:1.0 39:1.0 42:1.0 52:1.0 64:1.0 67:1.0 73:1.0 74:1.0 76:1.0 82:1.0 103:1.0 
1.515727657433419 4:1.0 6:1.0 16:1.0 22:1.0 36:1.0 40:1.0 48:1.0 63:1.0 67:1.0 73:1.0 75:1.0 76:1.0 81:1.0 83:1.0 
1.5137858955044379 4:1.0 11:1.0 16:1.0 19:1.0 39:1.0 40:1.0 51:1.0 63:1.0 67:1.0 73:1.0 75:1.0 76:1.0 80:1.0 83:1.0 
1.514857112740189 5:1.0 7:1.0 18:1.0 19:1.0 39:1.0 40:1.0 47:1.0 61:1.0 67:1.0 72:1.0 74:1.0 76:1.0 82:1.0 83:1.0 
1.515145601369274 4:1.0 6:1.0 17:1.0 20:1.0 37:1.0 40:1.0 48:1.0 63:1.0 71:1.0 73:1.0 74:1.0 76:1.0 80:1.0 83:1.0 
1.513410056648768 3:1.0 6:1.0 16:1.0 29:1.0 39:1.0 40:1.0 50:1.0 63:1.0 67:1.0 73:1.0 74:1.0 76:1.0 82:1.0 83:1.0 
1.5156879093930125 5:1.0 6:1.0 16:1.0 19:1.0 39:1.0 41:1.0 51:1.0 64:1.0 71:1.0 73:1.0 75:1.0 76:1.0 80:1.0 83:1.0 
1.5248510274257392 3:1.0 6:1.0 14:1.0 20:1.0 37:1.0 40:1.0 47:1.0 63:1.0 67:1.0 73:1.0 74:1.0 76:1.0 82:1.0 83:1.0 
1.5241817788280363 3:1.0 6:1.0 14:1.0 22:1.0 36:1.0 40:1.0 57:1.0 63:1.0 67:1.0 73:1.0 75:1.0 76:1.0 82:1.0 83:1.0 
1.5133901691989178 4:1.0 6:1.0 17:1.0 19:1.0 39:1.0 40:1.0 52:1.0 63:1.0 67:1.0 73:1.0 74:1.0 77:1.0 80:1.0 83:1.0 
1.5152290693024375 4:1.0 6:1.0 14:1.0 25:1.0 38:1.0 40:1.0 50:1.0 63:1.0 67:1.0 73:1.0 74:1.0 77:1.0 82:1.0 83:1.0 
1.5157352741719181 5:1.0 16:1.0 20:1.0 37:1.0 40:1.0 61:1.0 67:1.0 72:1.0 74:1.0 76:1.0 81:1.0 83:1.0 
1.45976155713958 5:1.0 6:1.0 14:1.0 22:1.0 36:1.0 40:1.0 53:1.0 63:1.0 67:1.0 73:1.0 74:1.0 76:1.0 80:1.0 83:1.0 
1.5148384385787321 5:1.0 6:1.0 16:1.0 19:1.0 39:1.0 43:1.0 51:1.0 64:1.0 67:1.0 73:1.0 75:1.0 76:1.0 81:1.0 83:1.0 
1.5131652423337583 4:1.0 6:1.0 17:1.0 22:1.0 36:1.0 40:1.0 47:1.0 63:1.0 67:1.0 73:1.0 74:1.0 76:1.0 81:1.0 83:1.0 
1.5152939066801112 5:1.0 6:1.0 15:1.0 24:1.0 38:1.0 40:1.0 51:1.0 61:1.0 71:1.0 72:1.0 74:1.0 76:1.0 80:1.0 83:1.0 
1.5155604258863309 2:1.0 10:1.0 15:1.0 19:1.0 39:1.0 42:1.0 52:1.0 64:1.0 71:1.0 73:1.0 75:1.0 76:1.0 81:1.0 
1.4869190290933667 5:1.0 7:1.0 14:1.0 22:1.0 36:1.0 40:1.0 51:1.0 63:1.0 67:1.0 73:1.0 75:1.0 76:1.0 82:1.0 83:1.0 
1.4971072014360098 4:1.0 8:1.0 15:1.0 19:1.0 39:1.0 40:1.0 50:1.0 63:1.0 67:1.0 73:1.0 74:1.0 76:1.0 82:1.0 83:1.0 
1.5174796766411576 3:1.0 8:1.0 17:1.0 22:1.0 36:1.0 40:1.0 48:1.0 63:1.0 67:1.0 73:1.0 74:1.0 76:1.0 82:1.0 
1.4977649593763265 4:1.0 6:1.0 18:1.0 20:1.0 37:1.0 40:1.0 57:1.0 63:1.0 67:1.0 73:1.0 74:1.0 76:1.0 82:1.0 83:1.0 
1.4952873353076925 3:1.0 6:1.0 17:1.0 22:1.0 36:1.0 40:1.0 54:1.0 63:1.0 67:1.0 73:1.0 74:1.0 76:1.0 82:1.0 83:1.0 
1.5143143387107625 5:1.0 10:1.0 15:1.0 19:1.0 39:1.0 40:1.0 52:1.0 63:1.0 67:1.0 73:1.0 74:1.0 77:1.0 80:1.0 83:1.0 
1.5155789938353443 3:1.0 10:1.0 17:1.0 29:1.0 39:1.0 40:1.0 52:1.0 61:1.0 67:1.0 72:1.0 74:1.0 76:1.0 80:1.0 83:1.0 
1.5152957320830571 1:1.0 6:1.0 16:1.0 19:1.0 39:1.0 40:1.0 51:1.0 61:1.0 67:1.0 72:1.0 74:1.0 76:1.0 78:1.0 83:1.0 
1.51448635396705 3:1.0 11:1.0 14:1.0 29:1.0 39:1.0 40:1.0 52:1.0 63:1.0 67:1.0 73:1.0 75:1.0 76:1.0 79:1.0 83:1.0 
1.523455048918646 4:1.0 6:1.0 15:1.0 20:1.0 37:1.0 40:1.0 50:1.0 63:1.0 67:1.0 73:1.0 75:1.0 76:1.0 80:1.0 83:1.0 
1.5138064962198552 4:1.0 6:1.0 15:1.0 29:1.0 39:1.0 40:1.0 47:1.0 63:1.0 67:1.0 73:1.0 74:1.0 76:1.0 78:1.0 83:1.0 
1.5151323840646433 2:1.0 6:1.0 15:1.0 20:1.0 37:1.0 40:1.0 56:1.0 63:1.0 67:1.0 73:1.0 74:1.0 76:1.0 82:1.0 83:1.0 
1.5146218897257042 3:1.0 6:1.0 15:1.0 20:1.0 37:1.0 40:1.0 51:1.0 63:1.0 67:1.0 73:1.0 75:1.0 76:1.0 80:1.0 83:1.0 
1.5148909150295145 3:1.0 6:1.0 17:1.0 20:1.0 37:1.0 40:1.0 55:1.0 61:1.0 67:1.0 72:1.0 74:1.0 76:1.0 79:1.0 83:1.0 
1.5134019837711232 5:1.0 6:1.0 16:1.0 32:1.0 39:1.0 40:1.0 51:1.0 63:1.0 67:1.0 73:1.0 74:1.0 76:1.0 80:1.0 83:1.0 
1.5223560682382573 3:1.0 7:1.0 14:1.0 19:1.0 39:1.0 40:1.0 52:1.0 63:1.0 67:1.0 73:1.0 74:1.0 76:1.0 82:1.0 83:1.0 
1.5149555087689142 5:1.0 7:1.0 14:1.0 27:1.0 35:1.0 45:1.0 55:1.0 64:1.0 67:1.0 73:1.0 74:1.0 76:1.0 78:1.0 99:1.0 
32.0 2:1.0 6:1.0 16:1.0 22:1.0 36:1.0 40:1.0 54:1.0 63:1.0 67:1.0 73:1.0 74:1.0 76:1.0 80:1.0 83:1.0 
1.5129778748615872 4:1.0 10:1.0 17:1.0 20:1.0 37:1.0 40:1.0 48:1.0 63:1.0 67:1.0 73:1.0 74:1.0 76:1.0 80:1.0 83:1.0 
1.4231014407070852 5:1.0 6:1.0 18:1.0 19:1.0 39:1.0 40:1.0 51:1.0 63:1.0 67:1.0 73:1.0 74:1.0 76:1.0 82:1.0 83:1.0 
32.0 2:1.0 7:1.0 17:1.0 22:1.0 36:1.0 40:1.0 48:1.0 63:1.0 67:1.0 73:1.0 74:1.0 76:1.0 80:1.0 83:1.0 
1.5236296256903261 2:1.0 6:1.0 15:1.0 20:1.0 37:1.0 40:1.0 51:1.0 63:1.0 67:1.0 73:1.0 74:1.0 76:1.0 80:1.0 83:1.0 
1.493682635626383 3:1.0 6:1.0 17:1.0 19:1.0 39:1.0 40:1.0 52:1.0 63:1.0 67:1.0 73:1.0 74:1.0 76:1.0 80:1.0 83:1.0 
1.515634636872187 1:1.0 6:1.0 18:1.0 27:1.0 35:1.0 42:1.0 49:1.0 64:1.0 67:1.0 73:1.0 74:1.0 76:1.0 82:1.0 83:1.0 
1.4870890241097094 4:1.0 6:1.0 14:1.0 20:1.0 37:1.0 40:1.0 50:1.0 63:1.0 67:1.0 73:1.0 74:1.0 76:1.0 81:1.0 83:1.0 
1.4851499467444338 3:1.0 6:1.0 15:1.0 19:1.0 39:1.0 40:1.0 54:1.0 63:1.0 67:1.0 73:1.0 74:1.0 76:1.0 82:1.0 83:1.0 
1.5148891442920884 3:1.0 6:1.0 17:1.0 23:1.0 39:1.0 43:1.0 52:1.0 64:1.0 67:1.0 73:1.0 74:1.0 76:1.0 79:1.0 83:1.0 
32.0 2:1.0 9:1.0 18:1.0 19:1.0 39:1.0 40:1.0 51:1.0 63:1.0 67:1.0 73:1.0 74:1.0 76:1.0 80:1.0 83:1.0 
1.477191043775017 2:1.0 6:1.0 17:1.0 19:1.0 39:1.0 40:1.0 51:1.0 63:1.0 67:1.0 73:1.0 74:1.0 76:1.0 80:1.0 83:1.0 
1.5138003052864795 5:1.0 8:1.0 15:1.0 23:1.0 39:1.0 40:1.0 52:1.0 63:1.0 67:1.0 73:1.0 75:1.0 76:1.0 82:1.0 83:1.0 
1.5172753310692844 4:1.0 6:1.0 16:1.0 22:1.0 36:1.0 40:1.0 57:1.0 63:1.0 67:1.0 73:1.0 74:1.0 76:1.0 82:1.0 83:1.0 
1.5146781270287448 4:1.0 7:1.0 16:1.0 20:1.0 37:1.0 40:1.0 48:1.0 63:1.0 67:1.0 73:1.0 74:1.0 77:1.0 80:1.0 83:1.0 
1.514436284886295 4:1.0 7:1.0 14:1.0 22:1.0 36:1.0 40:1.0 51:1.0 63:1.0 67:1.0 73:1.0 74:1.0 76:1.0 80:1.0 83:1.0 
1.5146123160937424 2:1.0 6:1.0 16:1.0 19:1.0 39:1.0 46:1.0 51:1.0 61:1.0 67:1.0 72:1.0 74:1.0 76:1.0 80:1.0 83:1.0 
1.5152241634280619 4:1.0 6:1.0 15:1.0 25:1.0 38:1.0 40:1.0 55:1.0 61:1.0 67:1.0 72:1.0 74:1.0 76:1.0 80:1.0 83:1.0 
1.5151166959689293 5:1.0 7:1.0 16:1.0 22:1.0 36:1.0 42:1.0 56:1.0 64:1.0 67:1.0 73:1.0 75:1.0 76:1.0 80:1.0 83:1.0 
1.514863289596482 3:1.0 9:1.0 16:1.0 23:1.0 39:1.0 42:1.0 52:1.0 64:1.0 67:1.0 72:1.0 74:1.0 76:1.0 82:1.0 83:1.0 
1.5154109333187293 2:1.0 7:1.0 16:1.0 22:1.0 36:1.0 40:1.0 57:1.0 63:1.0 67:1.0 73:1.0 75:1.0 76:1.0 80:1.0 83:1.0 
1.515186237228416 5:1.0 14:1.0 23:1.0 39:1.0 40:1.0 63:1.0 67:1.0 73:1.0 75:1.0 76:1.0 78:1.0 83:1.0 
1.5149266387592975 4:1.0 7:1.0 14:1.0 29:1.0 39:1.0 40:1.0 56:1.0 63:1.0 67:1.0 73:1.0 74:1.0 76:1.0 80:1.0 83:1.0 
1.3063797543583944 5:1.0 6:1.0 15:1.0 29:1.0 39:1.0 40:1.0 51:1.0 63:1.0 67:1.0 73:1.0 75:1.0 76:1.0 82:1.0 83:1.0 
1.4873835705607215 2:1.0 6:1.0 17:1.0 22:1.0 36:1.0 40:1.0 54:1.0 63:1.0 67:1.0 73:1.0 74:1.0 76:1.0 82:1.0 83:1.0 
1.486027006363475 3:1.0 6:1.0 14:1.0 19:1.0 39:1.0 40:1.0 57:1.0 63:1.0 67:1.0 73:1.0 75:1.0 76:1.0 82:1.0 83:1.0 
1.516075614862831 3:1.0 6:1.0 18:1.0 32:1.0 39:1.0 42:1.0 52:1.0 64:1.0 67:1.0 73:1.0 74:1.0 76:1.0 80:1.0 110:1.0 
1.515446382976386 4:1.0 6:1.0 16:1.0 32:1.0 39:1.0 42:1.0 52:1.0 64:1.0 67:1.0 73:1.0 74:1.0 76:1.0 79:1.0 83:1.0 
1.5143347022159495 4:1.0 6:1.0 17:1.0 19:1.0 39:1.0 40:1.0 51:1.0 63:1.0 71:1.0 73:1.0 74:1.0 76:1.0 79:1.0 83:1.0 
1.4880245756486143 4:1.0 6:1.0 17:1.0 25:1.0 38:1.0 40:1.0 54:1.0 63:1.0 67:1.0 73:1.0 74:1.0 76:1.0 80:1.0 83:1.0 
1.5144352113727668 4:1.0 6:1.0 14:1.0 25:1.0 38:1.0 40:1.0 51:1.0 63:1.0 67:1.0 73:1.0 75:1.0 76:1.0 82:1.0 83:1.0 
1.514199834039336 5:1.0 6:1.0 14:1.0 19:1.0 39:1.0 40:1.0 50:1.0 63:1.0 67:1.0 73:1.0 75:1.0 76:1.0 78:1.0 83:1.0 
1.4569537836549271 3:1.0 6:1.0 17:1.0 19:1.0 39:1.0 40:1.0 47:1.0 63:1.0 67:1.0 73:1.0 74:1.0 76:1.0 82:1.0 83:1.0 
1.4847070314782853 4:1.0 6:1.0 17:1.0 19:1.0 39:1.0 40:1.0 51:1.0 63:1.0 67:1.0 73:1.0 75:1.0 76:1.0 82:1.0 83:1.0 
1.5148402719099436 3:1.0 11:1.0 17:1.0 29:1.0 39:1.0 40:1.0 52:1.0 61:1.0 67:1.0 72:1.0 75:1.0 76:1.0 79:1.0 83:1.0 
1.5218373959548392 3:1.0 6:1.0 16:1.0 20:1.0 37:1.0 40:1.0 51:1.0 63:1.0 67:1.0 73:1.0 74:1.0 76:1.0 82:1.0 83:1.0 
1.5146531208406075 5:1.0 11:1.0 17:1.0 32:1.0 39:1.0 40:1.0 52:1.0 63:1.0 67:1.0 73:1.0 74:1.0 76:1.0 82:1.0 112:1.0 
1.5148578564072632 2:1.0 6:1.0 17:1.0 22:1.0 36:1.0 40:1.0 53:1.0 61:1.0 67:1.0 72:1.0 74:1.0 76:1.0 80:1.0 103:1.0 
1.5145422055520923 5:1.0 7:1.0 14:1.0 23:1.0 39:1.0 40:1.0 52:1.0 63:1.0 67:1.0 73:1.0 74:1.0 76:1.0 82:1.0 85:1.0 
1.4658410555030548 3:1.0 6:1.0 18:1.0 19:1.0 39:1.0 40:1.0 51:1.0 63:1.0 67:1.0 73:1.0 74:1.0 76:1.0 82:1.0 83:1.0 
1.5247526969889789 4:1.0 10:1.0 15:1.0 29:1.0 39:1.0 41:1.0 52:1.0 66:1.0 71:1.0 72:1.0 75:1.0 76:1.0 80:1.0 83:1.0 
32.0 5:1.0 16:1.0 22:1.0 36:1.0 40:1.0 63:1.0 67:1.0 73:1.0 74:1.0 76:1.0 80:1.0 83:1.0 
1.4884397603412118 2:1.0 10:1.0 17:1.0 22:1.0 36:1.0 40:1.0 59:1.0 63:1.0 67:1.0 73:1.0 74:1.0 76:1.0 81:1.0 83:1.0 
1.5164446751151435 3:1.0 6:1.0 15:1.0 22:1.0 36:1.0 40:1.0 54:1.0 63:1.0 68:1.0 73:1.0 74:1.0 76:1.0 80:1.0 
1.467525433958432 4:1.0 6:1.0 16:1.0 22:1.0 36:1.0 40:1.0 54:1.0 63:1.0 67:1.0 73:1.0 74:1.0 76:1.0 81:1.0 83:1.0 
1.4952263221863185 4:1.0 6:1.0 14:1.0 22:1.0 36:1.0 40:1.0 53:1.0 63:1.0 67:1.0 73:1.0 74:1.0 76:1.0 82:1.0 83:1.0 
1.4623503969084313 5:1.0 6:1.0 16:1.0 22:1.0 36:1.0 40:1.0 48:1.0 63:1.0 67:1.0 73:1.0 74:1.0 76:1.0 80:1.0 83:1.0 
1.5154370410576694 5:1.0 11:1.0 14:1.0 25:1.0 38:1.0 41:1.0 47:1.0 64:1.0 67:1.0 73:1.0 74:1.0 77:1.0 79:1.0 83:1.0 
1.524829222005599 4:1.0 11:1.0 15:1.0 22:1.0 36:1.0 41:1.0 55:1.0 66:1.0 67:1.0 72:1.0 74:1.0 76:1.0 82:1.0 83:1.0 
1.514332616358886 5:1.0 6:1.0 18:1.0 20:1.0 37:1.0 40:1.0 57:1.0 63:1.0 67:1.0 73:1.0 75:1.0 76:1.0 78:1.0 83:1.0 
1.5251514567257056 4:1.0 10:1.0 17:1.0 22:1.0 36:1.0 40:1.0 54:1.0 63:1.0 71:1.0 73:1.0 74:1.0 76:1.0 80:1.0 83:1.0 
1.5138579765305793 5:1.0 11:1.0 14:1.0 29:1.0 39:1.0 40:1.0 51:1.0 63:1.0 67:1.0 73:1.0 75:1.0 76:1.0 79:1.0 83:1.0 
1.5151198068643694 5:1.0 9:1.0 16:1.0 22:1.0 36:1.0 40:1.0 47:1.0 63:1.0 67:1.0 73:1.0 74:1.0 77:1.0 80:1.0 83:1.0 
1.5407531289906329 4:1.0 6:1.0 16:1.0 22:1.0 36:1.0 40:1.0 54:1.0 63:1.0 67:1.0 73:1.0 74:1.0 76:1.0 80:1.0 83:1.0 
1.5150995145505792 4:1.0 6:1.0 14:1.0 29:1.0 39:1.0 40:1.0 47:1.0 63:1.0 67:1.0 73:1.0 74:1.0 77:1.0 80:1.0 83:1.0 
1.5148225043394876 5:1.0 6:1.0 14:1.0 21:1.0 35:1.0 40:1.0 50:1.0 63:1.0 67:1.0 73:1.0 75:1.0 76:1.0 78:1.0 83:1.0 
1.5150022224231368 3:1.0 7:1.0 14:1.0 22:1.0 36:1.0 41:1.0 56:1.0 64:1.0 67:1.0 73:1.0 75:1.0 76:1.0 80:1.0 83:1.0 
1.5331701547425232 3:1.0 11:1.0 14:1.0 22:1.0 36:1.0 40:1.0 54:1.0 63:1.0 67:1.0 73:1.0 74:1.0 76:1.0 80:1.0 83:1.0 
1.4908127449918804 5:1.0 6:1.0 15:1.0 22:1.0 36:1.0 40:1.0 48:1.0 63:1.0 67:1.0 73:1.0 74:1.0 76:1.0 82:1.0 83:1.0 
1.514463905343318 3:1.0 6:1.0 14:1.0 24:1.0 38:1.0 40:1.0 51:1.0 63:1.0 67:1.0 73:1.0 74:1.0 76:1.0 80:1.0 83:1.0 
1.5150449224081348 3:1.0 10:1.0 14:1.0 20:1.0 37:1.0 40:1.0 55:1.0 61:1.0 67:1.0 72:1.0 74:1.0 76:1.0 80:1.0 83:1.0 
1.5141420109200108 4:1.0 6:1.0 15:1.0 25:1.0 38:1.0 40:1.0 56:1.0 63:1.0 67:1.0 73:1.0 74:1.0 76:1.0 80:1.0 83:1.0 
1.4866425719676677 4:1.0 6:1.0 18:1.0 20:1.0 37:1.0 40:1.0 50:1.0 63:1.0 67:1.0 73:1.0 74:1.0 76:1.0 81:1.0 83:1.0 
1.5237134459740835 2:1.0 6:1.0 16:1.0 20:1.0 37:1.0 40:1.0 57:1.0 63:1.0 67:1.0 73:1.0 74:1.0 76:1.0 82:1.0 83:1.0 
1.5249857669754463 5:1.0 6:1.0 18:1.0 22:1.0 36:1.0 40:1.0 48:1.0 63:1.0 67:1.0 73:1.0 74:1.0 76:1.0 79:1.0 83:1.0 
1.5127863960549814 4:1.0 6:1.0 15:1.0 29:1.0 39:1.0 40:1.0 55:1.0 63:1.0 67:1.0 73:1.0 74:1.0 76:1.0 81:1.0 83:1.0 
1.5250167657811797 3:1.0 6:1.0 18:1.0 22:1.0 36:1.0 41:1.0 51:1.0 66:1.0 67:1.0 72:1.0 74:1.0 76:1.0 80:1.0 83:1.0 
32.0 2:1.0 6:1.0 17:1.0 22:1.0 36:1.0 40:1.0 57:1.0 63:1.0 67:1.0 73:1.0 74:1.0 76:1.0 82:1.0 83:1.0 
1.5154700343486924 3:1.0 10:1.0 16:1.0 26:1.0 35:1.0 40:1.0 49:1.0 61:1.0 67:1.0 72:1.0 74:1.0 76:1.0 80:1.0 118:1.0 
1.5152712574443945 5:1.0 7:1.0 15:1.0 22:1.0 36:1.0 41:1.0 51:1.0 64:1.0 67:1.0 72:1.0 75:1.0 76:1.0 79:1.0 83:1.0 
1.5230240623264313 4:1.0 6:1.0 16:1.0 20:1.0 37:1.0 40:1.0 50:1.0 63:1.0 67:1.0 73:1.0 74:1.0 76:1.0 80:1.0 83:1.0 
1.5138300503005109 2:1.0 6:1.0 16:1.0 20:1.0 37:1.0 40:1.0 53:1.0 63:1.0 67:1.0 73:1.0 74:1.0 76:1.0 80:1.0 83:1.0 
1.487413183184315 4:1.0 6:1.0 15:1.0 32:1.0 39:1.0 40:1.0 52:1.0 63:1.0 67:1.0 73:1.0 74:1.0 76:1.0 82:1.0 83:1.0 
1.5127782435856914 3:1.0 6:1.0 17:1.0 19:1.0 39:1.0 40:1.0 50:1.0 63:1.0 67:1.0 73:1.0 74:1.0 77:1.0 82:1.0 83:1.0 
1.4596807304243737 3:1.0 6:1.0 17:1.0 19:1.0 39:1.0 40:1.0 47:1.0 63:1.0 67:1.0 73:1.0 74:1.0 76:1.0 80:1.0 83:1.0 
1.514966499206636 3:1.0 10:1.0 17:1.0 24:1.0 38:1.0 40:1.0 51:1.0 63:1.0 67:1.0 73:1.0 74:1.0 76:1.0 80:1.0 83:1.0 
1.514439252165894 3:1.0 6:1.0 16:1.0 25:1.0 38:1.0 40:1.0 48:1.0 63:1.0 67:1.0 73:1.0 75:1.0 76:1.0 80:1.0 83:1.0 
1.485681889697166 5:1.0 7:1.0 15:1.0 23:1.0 39:1.0 40:1.0 52:1.0 63:1.0 67:1.0 73:1.0 74:1.0 76:1.0 82:1.0 83:1.0 
1.5148589869177629 5:1.0 6:1.0 14:1.0 19:1.0 39:1.0 42:1.0 49:1.0 64:1.0 68:1.0 72:1.0 74:1.0 76:1.0 78:1.0 91:1.0 
1.5200223205560461 5:1.0 6:1.0 17:1.0 22:1.0 36:1.0 40:1.0 51:1.0 63:1.0 67:1.0 73:1.0 74:1.0 76:1.0 82:1.0 83:1.0 
1.5157474522113732 3:1.0 6:1.0 15:1.0 22:1.0 36:1.0 40:1.0 54:1.0 61:1.0 67:1.0 72:1.0 74:1.0 76:1.0 81:1.0 83:1.0 
1.5155490179820146 2:1.0 6:1.0 15:1.0 29:1.0 39:1.0 43:1.0 51:1.0 64:1.0 67:1.0 73:1.0 74:1.0 77:1.0 82:1.0 83:1.0 
1.5247552395717394 2:1.0 6:1.0 15:1.0 23:1.0 39:1.0 40:1.0 52:1.0 61:1.0 67:1.0 72:1.0 74:1.0 76:1.0 82:1.0 83:1.0 
1.5246009221635333 5:1.0 6:1.0 16:1.0 22:1.0 36:1.0 40:1.0 57:1.0 63:1.0 67:1.0 73:1.0 74:1.0 77:1.0 82:1.0 83:1.0 
1.4869198955033978 4:1.0 9:1.0 14:1.0 22:1.0 36:1.0 40:1.0 55:1.0 63:1.0 67:1.0 73:1.0 74:1.0 76:1.0 80:1.0 83:1.0 
1.513861824268975 3:1.0 9:1.0 15:1.0 22:1.0 36:1.0 40:1.0 55:1.0 63:1.0 67:1.0 73:1.0 74:1.0 76:1.0 80:1.0 83:1.0 
1.4862862083382888 3:1.0 6:1.0 17:1.0 22:1.0 36:1.0 40:1.0 51:1.0 63:1.0 67:1.0 73:1.0 74:1.0 76:1.0 81:1.0 83:1.0 
1.5150704188854622 4:1.0 10:1.0 17:1.0 19:1.0 39:1.0 41:1.0 59:1.0 64:1.0 71:1.0 73:1.0 74:1.0 76:1.0 82:1.0 83:1.0 
1.4873298745878367 5:1.0 8:1.0 14:1.0 22:1.0 36:1.0 40:1.0 51:1.0 63:1.0 67:1.0 73:1.0 75:1.0 76:1.0 82:1.0 83:1.0 
1.5244362897196257 3:1.0 10:1.0 16:1.0 20:1.0 37:1.0 40:1.0 59:1.0 63:1.0 67:1.0 73:1.0 74:1.0 76:1.0 82:1.0 83:1.0 
1.5154659961343482 5:1.0 7:1.0 18:1.0 19:1.0 39:1.0 40:1.0 51:1.0 63:1.0 67:1.0 73:1.0 75:1.0 76:1.0 78:1.0 83:1.0 
1.515096152899818 5:1.0 6:1.0 15:1.0 19:1.0 39:1.0 42:1.0 55:1.0 64:1.0 67:1.0 72:1.0 75:1.0 76:1.0 80:1.0 83:1.0 
1.5150745289753582 3:1.0 6:1.0 14:1.0 23:1.0 39:1.0 42:1.0 52:1.0 64:1.0 67:1.0 72:1.0 75:1.0 76:1.0 82:1.0 83:1.0 
1.5128144404601802 4:1.0 9:1.0 17:1.0 20:1.0 37:1.0 40:1.0 53:1.0 63:1.0 67:1.0 73:1.0 74:1.0 76:1.0 80:1.0 83:1.0 
1.5145020826868612 3:1.0 6:1.0 16:1.0 20:1.0 37:1.0 40:1.0 54:1.0 63:1.0 68:1.0 73:1.0 74:1.0 76:1.0 82:1.0 83:1.0 
1.515236314933702 4:1.0 6:1.0 18:1.0 25:1.0 38:1.0 40:1.0 52:1.0 63:1.0 67:1.0 73:1.0 74:1.0 77:1.0 81:1.0 83:1.0 
1.5153709737537888 5:1.0 8:1.0 18:1.0 23:1.0 39:1.0 40:1.0 52:1.0 63:1.0 67:1.0 73:1.0 74:1.0 77:1.0 82:1.0 83:1.0 
1.5143032333748445 4:1.0 10:1.0 18:1.0 19:1.0 39:1.0 40:1.0 51:1.0 63:1.0 71:1.0 73:1.0 74:1.0 76:1.0 80:1.0 83:1.0 
1.487622418705571 4:1.0 9:1.0 15:1.0 20:1.0 37:1.0 40:1.0 48:1.0 63:1.0 67:1.0 73:1.0 74:1.0 76:1.0 80:1.0 83:1.0 
1.5152891907796766 5:1.0 11:1.0 18:1.0 20:1.0 37:1.0 40:1.0 54:1.0 63:1.0 71:1.0 73:1.0 74:1.0 76:1.0 80:1.0 83:1.0 
1.5158721764187075 3:1.0 6:1.0 17:1.0 25:1.0 38:1.0 42:1.0 51:1.0 64:1.0 67:1.0 73:1.0 74:1.0 76:1.0 82:1.0 83:1.0 
1.5148506154290533 4:1.0 6:1.0 15:1.0 29:1.0 39:1.0 40:1.0 51:1.0 61:1.0 67:1.0 72:1.0 74:1.0 77:1.0 79:1.0 83:1.0 
1.514851107594493 2:1.0 8:1.0 16:1.0 22:1.0 36:1.0 40:1.0 56:1.0 63:1.0 67:1.0 73:1.0 74:1.0 77:1.0 82:1.0 83:1.0 
1.5252211729326697 3:1.0 6:1.0 17:1.0 22:1.0 36:1.0 40:1.0 48:1.0 63:1.0 67:1.0 73:1.0 75:1.0 76:1.0 80:1.0 83:1.0 
1.5154358547155333 4:1.0 7:1.0 18:1.0 19:1.0 39:1.0 41:1.0 49:1.0 66:1.0 68:1.0 72:1.0 74:1.0 76:1.0 82:1.0 93:1.0 
1.513874787303452 5:1.0 10:1.0 15:1.0 19:1.0 39:1.0 40:1.0 59:1.0 63:1.0 67:1.0 73:1.0 75:1.0 76:1.0 82:1.0 83:1.0 
1.4959146420973408 5:1.0 6:1.0 18:1.0 19:1.0 39:1.0 40:1.0 50:1.0 63:1.0 67:1.0 73:1.0 74:1.0 76:1.0 82:1.0 83:1.0 
1.4972892244038416 5:1.0 8:1.0 18:1.0 20:1.0 37:1.0 40:1.0 51:1.0 63:1.0 67:1.0 73:1.0 74:1.0 76:1.0 80:1.0 83:1.0 
1.5156236302743773 3:1.0 7:1.0 17:1.0 32:1.0 39:1.0 42:1.0 52:1.0 64:1.0 67:1.0 73:1.0 74:1.0 76:1.0 81:1.0 83:1.0 
1.514365170090297 2:1.0 6:1.0 15:1.0 19:1.0 39:1.0 40:1.0 52:1.0 61:1.0 67:1.0 72:1.0 74:1.0 77:1.0 78:1.0 83:1.0 
1.4604545324550062 4:1.0 6:1.0 16:1.0 22:1.0 36:1.0 40:1.0 55:1.0 63:1.0 67:1.0 73:1.0 74:1.0 76:1.0 82:1.0 83:1.0 
32.0 2:1.0 6:1.0 15:1.0 22:1.0 36:1.0 40:1.0 48:1.0 63:1.0 67:1.0 73:1.0 74:1.0 76:1.0 80:1.0 83:1.0 
1.5148545120597763 2:1.0 7:1.0 18:1.0 19:1.0 39:1.0 40:1.0 51:1.0 61:1.0 67:1.0 72:1.0 74:1.0 77:1.0 80:1.0 83:1.0 
1.5143925814343486 3:1.0 6:1.0 16:1.0 24:1.0 38:1.0 40:1.0 50:1.0 63:1.0 67:1.0 73:1.0 74:1.0 76:1.0 82:1.0 83:1.0 
1.5150816217433043 4:1.0 6:1.0 16:1.0 25:1.0 38:1.0 40:1.0 51:1.0 61:1.0 67:1.0 72:1.0 75:1.0 76:1.0 79:1.0 83:1.0 
1.5167011345743202 4:1.0 6:1.0 17:1.0 22:1.0 36:1.0 40:1.0 48:1.0 63:1.0 67:1.0 73:1.0 74:1.0 76:1.0 80:1.0 
1.48470707733717 4:1.0 6:1.0 14:1.0 19:1.0 39:1.0 40:1.0 52:1.0 63:1.0 67:1.0 73:1.0 74:1.0 76:1.0 80:1.0 83:1.0 
1.5154604349149559 4:1.0 8:1.0 15:1.0 20:1.0 37:1.0 40:1.0 52:1.0 61:1.0 67:1.0 72:1.0 74:1.0 76:1.0 80:1.0 
1.5243086477039276 4:1.0 6:1.0 17:1.0 22:1.0 36:1.0 40:1.0 51:1.0 61:1.0 67:1.0 72:1.0 74:1.0 76:1.0 80:1.0 83:1.0 
1.52427739448118 2:1.0 6:1.0 16:1.0 19:1.0 39:1.0 42:1.0 52:1.0 62:1.0 67:1.0 72:1.0 74:1.0 77:1.0 80:1.0 83:1.0 
1.5156680599350991 3:1.0 6:1.0 15:1.0 25:1.0 38:1.0 41:1.0 48:1.0 66:1.0 67:1.0 73:1.0 74:1.0 76:1.0 82:1.0 83:1.0 
1.524514699494089 4:1.0 10:1.0 16:1.0 29:1.0 39:1.0 40:1.0 52:1.0 63:1.0 67:1.0 73:1.0 74:1.0 76:1.0 82:1.0 83:1.0 
1.5152620682162459 2:1.0 8:1.0 17:1.0 22:1.0 36:1.0 40:1.0 50:1.0 63:1.0 71:1.0 73:1.0 75:1.0 76:1.0 80:1.0 83:1.0 
1.5247162143530821 4:1.0 8:1.0 14:1.0 24:1.0 38:1.0 40:1.0 52:1.0 63:1.0 67:1.0 73:1.0 74:1.0 76:1.0 82:1.0 83:1.0 
1.5153841185301782 1:1.0 6:1.0 15:1.0 21:1.0 35:1.0 40:1.0 57:1.0 63:1.0 67:1.0 73:1.0 75:1.0 76:1.0 80:1.0 100:1.0 
1.5157425068562418 4:1.0 10:1.0 15:1.0 29:1.0 39:1.0 40:1.0 52:1.0 63:1.0 71:1.0 73:1.0 74:1.0 76:1.0 79:1.0 83:1.0 
1.5148558242096473 4:1.0 11:1.0 17:1.0 32:1.0 39:1.0 43:1.0 52:1.0 66:1.0 67:1.0 72:1.0 74:1.0 76:1.0 80:1.0 83:1.0 
1.5150967034301643 4:1.0 9:1.0 18:1.0 20:1.0 37:1.0 40:1.0 51:1.0 63:1.0 71:1.0 73:1.0 74:1.0 76:1.0 80:1.0 83:1.0 
1.3346484625503738 5:1.0 6:1.0 15:1.0 29:1.0 39:1.0 40:1.0 51:1.0 63:1.0 67:1.0 73:1.0 75:1.0 76:1.0 82:1.0 
1.5150949148172992 3:1.0 6:1.0 14:1.0 19:1.0 39:1.0 41:1.0 51:1.0 66:1.0 67:1.0 72:1.0 74:1.0 76:1.0 82:1.0 83:1.0 
32.0 5:1.0 6:1.0 15:1.0 22:1.0 36:1.0 40:1.0 48:1.0 63:1.0 67:1.0 73:1.0 74:1.0 76:1.0 80:1.0 83:1.0 
1.450466016967426 5:1.0 6:1.0 18:1.0 19:1.0 39:1.0 40:1.0 51:1.0 63:1.0 67:1.0 73:1.0 74:1.0 76:1.0 80:1.0 83:1.0 
1.5153435388474819 2:1.0 6:1.0 18:1.0 19:1.0 39:1.0 41:1.0 51:1.0 64:1.0 67:1.0 72:1.0 74:1.0 76:1.0 82:1.0 83:1.0 
1.5231169731642533 5:1.0 7:1.0 14:1.0 19:1.0 39:1.0 40:1.0 51:1.0 63:1.0 67:1.0 73:1.0 74:1.0 76:1.0 82:1.0 83:1.0 
1.5148590035267024 3:1.0 6:1.0 16:1.0 29:1.0 39:1.0 42:1.0 55:1.0 64:1.0 67:1.0 73:1.0 75:1.0 76:1.0 82:1.0 83:1.0 
1.4884576263135598 4:1.0 10:1.0 16:1.0 19:1.0 39:1.0 40:1.0 52:1.0 61:1.0 67:1.0 72:1.0 74:1.0 76:1.0 80:1.0 83:1.0 
32.0 2:1.0 6:1.0 17:1.0 22:1.0 36:1.0 40:1.0 48:1.0 63:1.0 67:1.0 73:1.0 74:1.0 76:1.0 80:1.0 83:1.0 
1.514882789846328 4:1.0 6:1.0 15:1.0 25:1.0 38:1.0 40:1.0 47:1.0 61:1.0 67:1.0 72:1.0 74:1.0 77:1.0 78:1.0 83:1.0 
1.5150919084188117 5:1.0 8:1.0 15:1.0 20:1.0 37:1.0 40:1.0 50:1.0 63:1.0 67:1.0 73:1.0 74:1.0 77:1.0 79:1.0 83:1.0 
1.496026402431476 5:1.0 6:1.0 14:1.0 22:1.0 36:1.0 40:1.0 47:1.0 63:1.0 67:1.0 73:1.0 74:1.0 76:1.0 80:1.0 83:1.0 
1.5148591356433543 5:1.0 6:1.0 17:1.0 20:1.0 37:1.0 40:1.0 59:1.0 63:1.0 71:1.0 73:1.0 74:1.0 76:1.0 82:1.0 83:1.0 
1.4852876587873403 4:1.0 6:1.0 15:1.0 29:1.0 39:1.0 40:1.0 51:1.0 63:1.0 67:1.0 73:1.0 74:1.0 76:1.0 80:1.0 83:1.0 
1.5143633217718948 4:1.0 10:1.0 16:1.0 29:1.0 39:1.0 41:1.0 59:1.0 64:1.0 71:1.0 73:1.0 74:1.0 76:1.0 82:1.0 83:1.0 
1.514848485840127 4:1.0 6:1.0 17:1.0 19:1.0 39:1.0 40:1.0 52:1.0 61:1.0 67:1.0 72:1.0 74:1.0 76:1.0 78:1.0 95:1.0 
1.5150984159078222 5:1.0 6:1.0 16:1.0 22:1.0 36:1.0 44:1.0 51:1.0 66:1.0 67:1.0 73:1.0 74:1.0 76:1.0 79:1.0 83:1.0 
1.5143680934740271 3:1.0 6:1.0 17:1.0 25:1.0 38:1.0 40:1.0 48:1.0 63:1.0 67:1.0 73:1.0 75:1.0 76:1.0 81:1.0 83:1.0 
1.5156089039226077 3:1.0 6:1.0 18:1.0 29:1.0 39:1.0 42:1.0 55:1.0 64:1.0 67:1.0 72:1.0 74:1.0 76:1.0 82:1.0 99:1.0 
1.514974491794972 4:1.0 11:1.0 15:1.0 22:1.0 36:1.0 42:1.0 57:1.0 64:1.0 67:1.0 72:1.0 75:1.0 76:1.0 80:1.0 83:1.0 
1.5151215044732897 3:1.0 6:1.0 18:1.0 25:1.0 38:1.0 40:1.0 57:1.0 63:1.0 67:1.0 73:1.0 75:1.0 76:1.0 82:1.0 83:1.0 
1.513957300763578 4:1.0 6:1.0 14:1.0 19:1.0 39:1.0 40:1.0 48:1.0 63:1.0 67:1.0 73:1.0 74:1.0 76:1.0 81:1.0 83:1.0 
1.5146551905196304 5:1.0 7:1.0 16:1.0 23:1.0 39:1.0 40:1.0 52:1.0 63:1.0 67:1.0 73:1.0 74:1.0 76:1.0 78:1.0 83:1.0 
1.5178653410160314 5:1.0 7:1.0 14:1.0 22:1.0 36:1.0 40:1.0 56:1.0 63:1.0 67:1.0 73:1.0 74:1.0 76:1.0 82:1.0 83:1.0 
1.5152156992312866 3:1.0 6:1.0 16:1.0 19:1.0 39:1.0 40:1.0 50:1.0 61:1.0 67:1.0 72:1.0 74:1.0 76:1.0 79:1.0 83:1.0 
1.5338983210579176 4:1.0 6:1.0 15:1.0 22:1.0 36:1.0 40:1.0 53:1.0 63:1.0 67:1.0 73:1.0 74:1.0 76:1.0 80:1.0 83:1.0 
1.514995557296658 5:1.0 6:1.0 17:1.0 20:1.0 37:1.0 40:1.0 55:1.0 63:1.0 67:1.0 73:1.0 74:1.0 76:1.0 81:1.0 83:1.0 
1.5153561081688032 5:1.0 10:1.0 15:1.0 22:1.0 36:1.0 40:1.0 51:1.0 63:1.0 67:1.0 73:1.0 75:1.0 76:1.0 80:1.0 83:1.0 
1.5148243093395901 5:1.0 8:1.0 16:1.0 20:1.0 37:1.0 40:1.0 57:1.0 63:1.0 67:1.0 73:1.0 74:1.0 76:1.0 80:1.0 83:1.0 
1.5138673451034086 4:1.0 6:1.0 18:1.0 20:1.0 37:1.0 40:1.0 48:1.0 63:1.0 71:1.0 73:1.0 74:1.0 76:1.0 81:1.0 83:1.0 
1.5153057673643708 3:1.0 7:1.0 18:1.0 20:1.0 37:1.0 40:1.0 52:1.0 61:1.0 67:1.0 72:1.0 74:1.0 76:1.0 82:1.0 83:1.0 
1.5153497975086068 5:1.0 10:1.0 15:1.0 22:1.0 36:1.0 40:1.0 55:1.0 61:1.0 67:1.0 72:1.0 75:1.0 76:1.0 78:1.0 83:1.0 
1.4871925531598555 4:1.0 11:1.0 17:1.0 19:1.0 39:1.0 40:1.0 51:1.0 63:1.0 71:1.0 73:1.0 74:1.0 76:1.0 80:1.0 83:1.0 
1.5149786119089694 1:1.0 6:1.0 14:1.0 19:1.0 39:1.0 42:1.0 52:1.0 62:1.0 67:1.0 72:1.0 74:1.0 77:1.0 80:1.0 83:1.0 
1.5152471691066112 2:1.0 7:1.0 14:1.0 23:1.0 39:1.0 40:1.0 52:1.0 63:1.0 67:1.0 73:1.0 75:1.0 76:1.0 81:1.0 83:1.0 
1.5114420561516142 5:1.0 6:1.0 17:1.0 29:1.0 39:1.0 40:1.0 51:1.0 63:1.0 67:1.0 73:1.0 74:1.0 76:1.0 80:1.0 83:1.0 
1.5247467840817162 2:1.0 6:1.0 16:1.0 21:1.0 35:1.0 40:1.0 53:1.0 63:1.0 67:1.0 73:1.0 75:1.0 76:1.0 80:1.0 83:1.0 
1.5144299950190727 3:1.0 7:1.0 18:1.0 19:1.0 39:1.0 40:1.0 50:1.0 63:1.0 67:1.0 73:1.0 75:1.0 76:1.0 82:1.0 83:1.0 
31.98943997276277 5:1.0 7:1.0 14:1.0 22:1.0 36:1.0 40:1.0 56:1.0 63:1.0 67:1.0 73:1.0 74:1.0 76:1.0 82:1.0 83:1.0 
1.5342349179108528 5:1.0 14:1.0 22:1.0 36:1.0 40:1.0 63:1.0 67:1.0 73:1.0 74:1.0 76:1.0 78:1.0 83:1.0 
1.4872533182354681 2:1.0 6:1.0 16:1.0 29:1.0 39:1.0 40:1.0 52:1.0 63:1.0 67:1.0 73:1.0 74:1.0 77:1.0 80:1.0 83:1.0 
1.5154356501927801 5:1.0 6:1.0 14:1.0 31:1.0 35:1.0 40:1.0 50:1.0 61:1.0 68:1.0 72:1.0 74:1.0 76:1.0 78:1.0 91:1.0 
1.5148551996414312 3:1.0 6:1.0 18:1.0 19:1.0 39:1.0 40:1.0 48:1.0 63:1.0 68:1.0 73:1.0 74:1.0 76:1.0 80:1.0 84:1.0 
32.0 4:1.0 7:1.0 14:1.0 19:1.0 39:1.0 40:1.0 56:1.0 63:1.0 67:1.0 73:1.0 74:1.0 76:1.0 82:1.0 83:1.0 
1.4927534031666043 4:1.0 8:1.0 14:1.0 19:1.0 39:1.0 40:1.0 50:1.0 63:1.0 67:1.0 73:1.0 74:1.0 76:1.0 82:1.0 83:1.0 
1.4934833146593545 3:1.0 6:1.0 15:1.0 19:1.0 39:1.0 40:1.0 50:1.0 63:1.0 67:1.0 73:1.0 74:1.0 76:1.0 82:1.0 83:1.0 
1.4859449620954581 4:1.0 11:1.0 17:1.0 19:1.0 39:1.0 40:1.0 51:1.0 63:1.0 67:1.0 73:1.0 74:1.0 76:1.0 80:1.0 83:1.0 
1.524007470768789 3:1.0 10:1.0 18:1.0 19:1.0 39:1.0 40:1.0 55:1.0 63:1.0 67:1.0 73:1.0 74:1.0 76:1.0 80:1.0 83:1.0 
1.4417899737676814 4:1.0 6:1.0 17:1.0 22:1.0 36:1.0 40:1.0 53:1.0 63:1.0 67:1.0 73:1.0 74:1.0 76:1.0 82:1.0 83:1.0 
1.488387941485872 3:1.0 6:1.0 16:1.0 29:1.0 39:1.0 40:1.0 52:1.0 63:1.0 67:1.0 73:1.0 74:1.0 77:1.0 80:1.0 83:1.0 
1.515028807504338 4:1.0 6:1.0 18:1.0 24:1.0 38:1.0 40:1.0 50:1.0 63:1.0 67:1.0 73:1.0 74:1.0 76:1.0 82:1.0 83:1.0 
1.5152337242378588 4:1.0 10:1.0 18:1.0 24:1.0 38:1.0 40:1.0 51:1.0 63:1.0 71:1.0 73:1.0 74:1.0 76:1.0 82:1.0 83:1.0 
1.5048751103104194 5:1.0 6:1.0 17:1.0 22:1.0 36:1.0 40:1.0 54:1.0 63:1.0 67:1.0 73:1.0 74:1.0 76:1.0 80:1.0 83:1.0 
1.5247851949554745 5:1.0 10:1.0 14:1.0 19:1.0 39:1.0 40:1.0 55:1.0 61:1.0 67:1.0 72:1.0 74:1.0 76:1.0 80:1.0 83:1.0 
1.456715519550331 3:1.0 6:1.0 14:1.0 19:1.0 39:1.0 40:1.0 51:1.0 63:1.0 67:1.0 73:1.0 74:1.0 76:1.0 80:1.0 83:1.0 
1.4989730208662555 5:1.0 6:1.0 15:1.0 22:1.0 36:1.0 40:1.0 57:1.0 63:1.0 67:1.0 73:1.0 74:1.0 76:1.0 82:1.0 83:1.0 
1.51454593775257 5:1.0 8:1.0 14:1.0 19:1.0 39:1.0 40:1.0 56:1.0 63:1.0 67:1.0 73:1.0 74:1.0 77:1.0 82:1.0 83:1.0 
1.4863557178291384 4:1.0 9:1.0 18:1.0 20:1.0 37:1.0 40:1.0 48:1.0 63:1.0 67:1.0 73:1.0 74:1.0 76:1.0 80:1.0 83:1.0 
1.5127293522167038 4:1.0 6:1.0 17:1.0 19:1.0 39:1.0 40:1.0 50:1.0 63:1.0 67:1.0 73:1.0 75:1.0 76:1.0 80:1.0 83:1.0 
1.512573304672186 4:1.0 10:1.0 14:1.0 19:1.0 39:1.0 40:1.0 51:1.0 63:1.0 67:1.0 73:1.0 74:1.0 76:1.0 82:1.0 83:1.0 
1.5155564688118324 2:1.0 6:1.0 16:1.0 19:1.0 39:1.0 42:1.0 51:1.0 64:1.0 67:1.0 72:1.0 74:1.0 76:1.0 81:1.0 83:1.0 
1.5140013688394713 4:1.0 7:1.0 17:1.0 23:1.0 39:1.0 40:1.0 52:1.0 63:1.0 67:1.0 73:1.0 74:1.0 77:1.0 82:1.0 83:1.0 
1.5152473031554128 5:1.0 10:1.0 15:1.0 22:1.0 36:1.0 40:1.0 48:1.0 63:1.0 67:1.0 73:1.0 74:1.0 77:1.0 79:1.0 83:1.0 
32.0 2:1.0 6:1.0 14:1.0 19:1.0 39:1.0 40:1.0 50:1.0 63:1.0 67:1.0 73:1.0 74:1.0 76:1.0 82:1.0 83:1.0 
1.5148802679906304 5:1.0 10:1.0 17:1.0 23:1.0 39:1.0 40:1.0 55:1.0 63:1.0 68:1.0 73:1.0 74:1.0 76:1.0 80:1.0 98:1.0 
1.4865727299042601 5:1.0 11:1.0 17:1.0 32:1.0 39:1.0 40:1.0 52:1.0 63:1.0 67:1.0 73:1.0 74:1.0 76:1.0 80:1.0 83:1.0 
1.5150093440661547 5:1.0 8:1.0 15:1.0 24:1.0 38:1.0 40:1.0 50:1.0 63:1.0 67:1.0 73:1.0 74:1.0 76:1.0 82:1.0 83:1.0 
1.5153861636128338 4:1.0 6:1.0 14:1.0 25:1.0 38:1.0 40:1.0 48:1.0 63:1.0 67:1.0 73:1.0 74:1.0 76:1.0 80:1.0 87:1.0 
1.515229122713186 4:1.0 9:1.0 14:1.0 25:1.0 38:1.0 40:1.0 55:1.0 63:1.0 67:1.0 73:1.0 75:1.0 76:1.0 80:1.0 83:1.0 
1.486056545861733 5:1.0 6:1.0 17:1.0 22:1.0 36:1.0 40:1.0 48:1.0 63:1.0 67:1.0 73:1.0 74:1.0 76:1.0 80:1.0 83:1.0 
1.460444511467846 5:1.0 6:1.0 14:1.0 19:1.0 39:1.0 40:1.0 51:1.0 63:1.0 67:1.0 73:1.0 74:1.0 76:1.0 80:1.0 83:1.0 
1.5154288202658373 4:1.0 7:1.0 16:1.0 23:1.0 39:1.0 40:1.0 52:1.0 63:1.0 67:1.0 73:1.0 75:1.0 76:1.0 82:1.0 83:1.0 
1.4565397612291742 3:1.0 6:1.0 16:1.0 19:1.0 39:1.0 40:1.0 51:1.0 63:1.0 67:1.0 73:1.0 74:1.0 76:1.0 82:1.0 83:1.0 
1.5151749785406827 5:1.0 8:1.0 18:1.0 19:1.0 39:1.0 40:1.0 54:1.0 63:1.0 68:1.0 73:1.0 75:1.0 76:1.0 80:1.0 
1.513287418471098 4:1.0 8:1.0 17:1.0 29:1.0 39:1.0 40:1.0 51:1.0 63:1.0 67:1.0 73:1.0 75:1.0 76:1.0 82:1.0 83:1.0 
1.5143219907348036 5:1.0 6:1.0 15:1.0 25:1.0 38:1.0 40:1.0 47:1.0 63:1.0 67:1.0 73:1.0 75:1.0 76:1.0 80:1.0 83:1.0 
1.5145658353068108 2:1.0 6:1.0 17:1.0 19:1.0 39:1.0 40:1.0 51:1.0 61:1.0 67:1.0 72:1.0 74:1.0 76:1.0 80:1.0 83:1.0 
1.487440325185676 5:1.0 8:1.0 17:1.0 20:1.0 37:1.0 40:1.0 51:1.0 63:1.0 67:1.0 73:1.0 74:1.0 76:1.0 80:1.0 83:1.0 
1.5120341937417972 3:1.0 6:1.0 15:1.0 19:1.0 39:1.0 40:1.0 51:1.0 63:1.0 67:1.0 73:1.0 74:1.0 77:1.0 82:1.0 83:1.0 
1.5147184728616652 3:1.0 6:1.0 17:1.0 31:1.0 35:1.0 40:1.0 51:1.0 63:1.0 67:1.0 73:1.0 74:1.0 76:1.0 80:1.0 83:1.0 
1.5138429758532006 5:1.0 9:1.0 17:1.0 20:1.0 37:1.0 40:1.0 51:1.0 63:1.0 67:1.0 73:1.0 75:1.0 76:1.0 80:1.0 83:1.0 
1.5151143692538125 5:1.0 6:1.0 15:1.0 19:1.0 39:1.0 40:1.0 51:1.0 63:1.0 68:1.0 73:1.0 74:1.0 76:1.0 80:1.0 98:1.0 
1.5249210872676997 5:1.0 6:1.0 15:1.0 20:1.0 37:1.0 40:1.0 48:1.0 63:1.0 67:1.0 73:1.0 75:1.0 76:1.0 82:1.0 83:1.0 
1.4843539677844875 4:1.0 6:1.0 14:1.0 29:1.0 39:1.0 40:1.0 51:1.0 63:1.0 67:1.0 73:1.0 74:1.0 76:1.0 80:1.0 83:1.0 
1.523325513356352 5:1.0 9:1.0 18:1.0 20:1.0 37:1.0 40:1.0 55:1.0 63:1.0 67:1.0 73:1.0 74:1.0 76:1.0 80:1.0 83:1.0 
1.5715639743319367 3:1.0 6:1.0 14:1.0 20:1.0 37:1.0 40:1.0 48:1.0 63:1.0 67:1.0 73:1.0 74:1.0 76:1.0 80:1.0 83:1.0 
1.514343297091932 5:1.0 6:1.0 18:1.0 25:1.0 38:1.0 40:1.0 52:1.0 63:1.0 67:1.0 73:1.0 75:1.0 76:1.0 80:1.0 83:1.0 
1.487115884531445 3:1.0 7:1.0 15:1.0 23:1.0 39:1.0 40:1.0 52:1.0 63:1.0 67:1.0 73:1.0 74:1.0 76:1.0 82:1.0 83:1.0 
1.5138233691015794 4:1.0 7:1.0 18:1.0 32:1.0 39:1.0 40:1.0 52:1.0 63:1.0 67:1.0 73:1.0 74:1.0 77:1.0 82:1.0 83:1.0 
1.5247475304945688 3:1.0 18:1.0 19:1.0 39:1.0 40:1.0 61:1.0 67:1.0 72:1.0 74:1.0 76:1.0 78:1.0 83:1.0 
1.5154264121485608 4:1.0 6:1.0 16:1.0 22:1.0 36:1.0 41:1.0 48:1.0 64:1.0 71:1.0 73:1.0 75:1.0 76:1.0 81:1.0 83:1.0 
1.4437832180907306 2:1.0 6:1.0 14:1.0 19:1.0 39:1.0 40:1.0 51:1.0 63:1.0 67:1.0 73:1.0 74:1.0 76:1.0 80:1.0 83:1.0 
1.5156507211062484 2:1.0 6:1.0 16:1.0 24:1.0 38:1.0 40:1.0 52:1.0 63:1.0 67:1.0 73:1.0 74:1.0 76:1.0 81:1.0 83:1.0 
1.5136090341278898 2:1.0 6:1.0 15:1.0 19:1.0 39:1.0 40:1.0 52:1.0 63:1.0 67:1.0 73:1.0 74:1.0 77:1.0 80:1.0 83:1.0 
1.5132804559087536 5:1.0 8:1.0 15:1.0 19:1.0 39:1.0 40:1.0 51:1.0 63:1.0 67:1.0 73:1.0 74:1.0 77:1.0 82:1.0 83:1.0 
1.5358751787122353 3:1.0 6:1.0 15:1.0 22:1.0 36:1.0 40:1.0 50:1.0 63:1.0 67:1.0 73:1.0 74:1.0 76:1.0 80:1.0 83:1.0 
1.5141510443004258 4:1.0 6:1.0 18:1.0 20:1.0 37:1.0 40:1.0 52:1.0 63:1.0 67:1.0 73:1.0 75:1.0 76:1.0 80:1.0 83:1.0 
1.5152411875917904 2:1.0 6:1.0 17:1.0 23:1.0 39:1.0 40:1.0 52:1.0 63:1.0 67:1.0 73:1.0 74:1.0 76:1.0 78:1.0 83:1.0 
1.4068039207195193 4:1.0 6:1.0 16:1.0 22:1.0 36:1.0 40:1.0 50:1.0 63:1.0 67:1.0 73:1.0 74:1.0 76:1.0 82:1.0 83:1.0 
1.5152469701460676 3:1.0 8:1.0 14:1.0 25:1.0 38:1.0 40:1.0 50:1.0 63:1.0 67:1.0 73:1.0 74:1.0 76:1.0 80:1.0 83:1.0 
1.5154005331723646 4:1.0 6:1.0 15:1.0 32:1.0 39:1.0 42:1.0 52:1.0 64:1.0 67:1.0 73:1.0 75:1.0 76:1.0 78:1.0 83:1.0 
1.5148537260191228 3:1.0 11:1.0 18:1.0 32:1.0 39:1.0 40:1.0 52:1.0 63:1.0 67:1.0 73:1.0 74:1.0 76:1.0 81:1.0 88:1.0 
1.483430680093436 4:1.0 6:1.0 14:1.0 19:1.0 39:1.0 40:1.0 51:1.0 63:1.0 67:1.0 73:1.0 75:1.0 76:1.0 82:1.0 83:1.0 
1.485612024415808 5:1.0 8:1.0 15:1.0 19:1.0 39:1.0 40:1.0 51:1.0 63:1.0 67:1.0 73:1.0 75:1.0 76:1.0 82:1.0 83:1.0 
1.514981535783287 3:1.0 6:1.0 15:1.0 29:1.0 39:1.0 40:1.0 52:1.0 61:1.0 67:1.0 72:1.0 74:1.0 77:1.0 78:1.0 83:1.0 
1.5145357085350035 5:1.0 7:1.0 17:1.0 20:1.0 37:1.0 40:1.0 57:1.0 63:1.0 67:1.0 73:1.0 74:1.0 76:1.0 81:1.0 83:1.0 
1.5155828064246244 4:1.0 6:1.0 18:1.0 20:1.0 37:1.0 43:1.0 50:1.0 64:1.0 67:1.0 73:1.0 74:1.0 76:1.0 82:1.0 83:1.0 
1.5239110957759412 4:1.0 6:1.0 14:1.0 22:1.0 36:1.0 40:1.0 48:1.0 63:1.0 67:1.0 73:1.0 74:1.0 77:1.0 80:1.0 83:1.0 
1.5154659139090876 3:1.0 10:1.0 16:1.0 19:1.0 39:1.0 42:1.0 59:1.0 64:1.0 67:1.0 72:1.0 75:1.0 76:1.0 81:1.0 83:1.0 
1.5149004596735034 3:1.0 11:1.0 14:1.0 20:1.0 37:1.0 40:1.0 51:1.0 61:1.0 67:1.0 72:1.0 75:1.0 76:1.0 79:1.0 83:1.0 
1.4798009998534352 5:1.0 6:1.0 16:1.0 22:1.0 36:1.0 40:1.0 57:1.0 63:1.0 67:1.0 73:1.0 74:1.0 76:1.0 80:1.0 83:1.0 
1.4867343355034268 4:1.0 6:1.0 17:1.0 25:1.0 38:1.0 40:1.0 52:1.0 63:1.0 67:1.0 73:1.0 74:1.0 76:1.0 80:1.0 83:1.0 
1.514254284448528 5:1.0 8:1.0 14:1.0 29:1.0 39:1.0 40:1.0 51:1.0 63:1.0 67:1.0 73:1.0 75:1.0 76:1.0 80:1.0 83:1.0 
1.5137286347638006 4:1.0 11:1.0 14:1.0 22:1.0 36:1.0 40:1.0 48:1.0 63:1.0 67:1.0 73:1.0 74:1.0 76:1.0 80:1.0 83:1.0 
1.4875641361924337 2:1.0 6:1.0 17:1.0 19:1.0 39:1.0 40:1.0 51:1.0 63:1.0 67:1.0 73:1.0 74:1.0 76:1.0 81:1.0 83:1.0 
1.5250592611832108 5:1.0 8:1.0 16:1.0 19:1.0 39:1.0 40:1.0 50:1.0 63:1.0 67:1.0 73:1.0 74:1.0 76:1.0 78:1.0 83:1.0 
1.5132275153167667 3:1.0 7:1.0 17:1.0 32:1.0 39:1.0 40:1.0 52:1.0 63:1.0 67:1.0 73:1.0 74:1.0 76:1.0 82:1.0 83:1.0 
1.515364249597307 3:1.0 10:1.0 14:1.0 32:1.0 39:1.0 40:1.0 52:1.0 63:1.0 67:1.0 73:1.0 74:1.0 77:1.0 82:1.0 83:1.0 
1.4876413162307422 4:1.0 10:1.0 16:1.0 19:1.0 39:1.0 40:1.0 52:1.0 61:1.0 71:1.0 72:1.0 74:1.0 76:1.0 80:1.0 83:1.0 
1.4981101393441656 2:1.0 7:1.0 14:1.0 22:1.0 36:1.0 40:1.0 56:1.0 63:1.0 67:1.0 73:1.0 74:1.0 76:1.0 82:1.0 83:1.0 
1.5145403200840686 4:1.0 6:1.0 16:1.0 22:1.0 36:1.0 40:1.0 55:1.0 61:1.0 67:1.0 72:1.0 74:1.0 76:1.0 80:1.0 83:1.0 
1.5249985394226928 2:1.0 6:1.0 14:1.0 22:1.0 36:1.0 40:1.0 52:1.0 63:1.0 67:1.0 73:1.0 74:1.0 76:1.0 79:1.0 83:1.0 
1.5154010819150083 2:1.0 9:1.0 18:1.0 29:1.0 39:1.0 40:1.0 52:1.0 63:1.0 67:1.0 73:1.0 74:1.0 76:1.0 80:1.0 83:1.0 
1.5153062807231836 3:1.0 11:1.0 16:1.0 22:1.0 36:1.0 40:1.0 48:1.0 63:1.0 67:1.0 73:1.0 74:1.0 77:1.0 80:1.0 83:1.0 
1.513724337533831 4:1.0 7:1.0 16:1.0 22:1.0 36:1.0 40:1.0 56:1.0 63:1.0 67:1.0 73:1.0 74:1.0 76:1.0 82:1.0 83:1.0 
1.5150976585191873 5:1.0 8:1.0 15:1.0 25:1.0 38:1.0 40:1.0 51:1.0 63:1.0 67:1.0 73:1.0 74:1.0 76:1.0 80:1.0 92:1.0 
1.4872370028822923 3:1.0 6:1.0 18:1.0 22:1.0 36:1.0 40:1.0 51:1.0 63:1.0 67:1.0 73:1.0 75:1.0 76:1.0 82:1.0 83:1.0 
1.487935984919904 3:1.0 6:1.0 14:1.0 23:1.0 39:1.0 40:1.0 52:1.0 63:1.0 67:1.0 73:1.0 75:1.0 76:1.0 82:1.0 83:1.0 
1.486574252067881 4:1.0 6:1.0 15:1.0 32:1.0 39:1.0 40:1.0 52:1.0 63:1.0 67:1.0 73:1.0 74:1.0 77:1.0 82:1.0 83:1.0 
1.4887465112816238 2:1.0 10:1.0 17:1.0 22:1.0 36:1.0 40:1.0 59:1.0 63:1.0 67:1.0 73:1.0 74:1.0 76:1.0 80:1.0 83:1.0 
1.5429817086206492 2:1.0 6:1.0 18:1.0 22:1.0 36:1.0 40:1.0 51:1.0 63:1.0 67:1.0 73:1.0 74:1.0 76:1.0 80:1.0 83:1.0 
1.514877378239678 5:1.0 6:1.0 14:1.0 29:1.0 39:1.0 40:1.0 52:1.0 63:1.0 68:1.0 73:1.0 74:1.0 76:1.0 81:1.0 90:1.0 
1.5150287882774767 5:1.0 9:1.0 14:1.0 29:1.0 39:1.0 40:1.0 51:1.0 63:1.0 67:1.0 73:1.0 74:1.0 76:1.0 80:1.0 104:1.0 
1.5148849173776058 3:1.0 6:1.0 18:1.0 29:1.0 39:1.0 42:1.0 51:1.0 64:1.0 71:1.0 72:1.0 74:1.0 76:1.0 80:1.0 83:1.0 
1.514250405749672 4:1.0 7:1.0 17:1.0 23:1.0 39:1.0 40:1.0 52:1.0 63:1.0 67:1.0 73:1.0 74:1.0 76:1.0 79:1.0 83:1.0 
1.4955795111234136 5:1.0 9:1.0 14:1.0 22:1.0 36:1.0 40:1.0 55:1.0 63:1.0 67:1.0 73:1.0 74:1.0 76:1.0 80:1.0 83:1.0 
1.5099482554238028 3:1.0 6:1.0 18:1.0 19:1.0 39:1.0 40:1.0 50:1.0 63:1.0 67:1.0 73:1.0 74:1.0 76:1.0 80:1.0 83:1.0 
1.512246392464182 5:1.0 6:1.0 15:1.0 23:1.0 39:1.0 40:1.0 51:1.0 63:1.0 67:1.0 73:1.0 74:1.0 76:1.0 82:1.0 83:1.0 
1.4863633232646871 5:1.0 6:1.0 18:1.0 29:1.0 39:1.0 40:1.0 51:1.0 63:1.0 67:1.0 73:1.0 74:1.0 76:1.0 82:1.0 83:1.0 
1.5133419274678437 5:1.0 6:1.0 16:1.0 19:1.0 39:1.0 40:1.0 47:1.0 63:1.0 67:1.0 73:1.0 74:1.0 76:1.0 82:1.0 83:1.0 
1.4881220807508568 3:1.0 6:1.0 15:1.0 22:1.0 36:1.0 40:1.0 50:1.0 63:1.0 67:1.0 73:1.0 74:1.0 77:1.0 80:1.0 83:1.0 
1.5151438005398834 4:1.0 6:1.0 16:1.0 19:1.0 39:1.0 43:1.0 51:1.0 66:1.0 67:1.0 73:1.0 75:1.0 76:1.0 80:1.0 83:1.0 
1.514326834877432 4:1.0 7:1.0 18:1.0 20:1.0 37:1.0 40:1.0 48:1.0 63:1.0 67:1.0 73:1.0 74:1.0 77:1.0 82:1.0 83:1.0 
1.5148956457875995 5:1.0 10:1.0 17:1.0 19:1.0 39:1.0 44:1.0 52:1.0 66:1.0 67:1.0 72:1.0 74:1.0 76:1.0 82:1.0 83:1.0 
1.5134510753549086 4:1.0 6:1.0 17:1.0 20:1.0 37:1.0 40:1.0 52:1.0 63:1.0 67:1.0 73:1.0 74:1.0 76:1.0 80:1.0 83:1.0 
1.5151103867402005 5:1.0 6:1.0 14:1.0 29:1.0 39:1.0 40:1.0 52:1.0 63:1.0 67:1.0 73:1.0 74:1.0 76:1.0 79:1.0 87:1.0 
1.514658633762811 2:1.0 7:1.0 15:1.0 19:1.0 39:1.0 40:1.0 54:1.0 63:1.0 67:1.0 73:1.0 74:1.0 76:1.0 82:1.0 83:1.0 
1.4859128054475867 3:1.0 6:1.0 18:1.0 19:1.0 39:1.0 40:1.0 51:1.0 63:1.0 67:1.0 73:1.0 75:1.0 76:1.0 80:1.0 83:1.0 
1.5132207439684384 4:1.0 8:1.0 17:1.0 32:1.0 39:1.0 40:1.0 52:1.0 63:1.0 67:1.0 73:1.0 74:1.0 76:1.0 82:1.0 83:1.0 
1.5154342789373758 5:1.0 7:1.0 18:1.0 24:1.0 38:1.0 40:1.0 51:1.0 61:1.0 67:1.0 72:1.0 75:1.0 76:1.0 78:1.0 83:1.0 
1.5247639730732796 2:1.0 10:1.0 15:1.0 22:1.0 36:1.0 40:1.0 51:1.0 63:1.0 67:1.0 73:1.0 74:1.0 76:1.0 82:1.0 83:1.0 
1.4870923866153027 4:1.0 11:1.0 17:1.0 32:1.0 39:1.0 40:1.0 52:1.0 63:1.0 67:1.0 73:1.0 74:1.0 76:1.0 80:1.0 83:1.0 
1.5153637377144935 4:1.0 6:1.0 18:1.0 19:1.0 39:1.0 42:1.0 50:1.0 64:1.0 67:1.0 73:1.0 74:1.0 76:1.0 82:1.0 83:1.0 
32.0 3:1.0 6:1.0 18:1.0 22:1.0 36:1.0 40:1.0 48:1.0 63:1.0 67:1.0 73:1.0 74:1.0 76:1.0 80:1.0 83:1.0 
1.5153919099315853 4:1.0 10:1.0 16:1.0 19:1.0 39:1.0 40:1.0 48:1.0 63:1.0 67:1.0 73:1.0 74:1.0 76:1.0 79:1.0 83:1.0 
1.513813872886093 5:1.0 8:1.0 14:1.0 20:1.0 37:1.0 40:1.0 51:1.0 63:1.0 67:1.0 73:1.0 75:1.0 76:1.0 82:1.0 83:1.0 
1.513452844342301 2:1.0 6:1.0 16:1.0 19:1.0 39:1.0 40:1.0 52:1.0 63:1.0 67:1.0 73:1.0 75:1.0 76:1.0 82:1.0 83:1.0 
1.5152254266125242 3:1.0 6:1.0 15:1.0 20:1.0 37:1.0 41:1.0 51:1.0 64:1.0 67:1.0 72:1.0 74:1.0 76:1.0 80:1.0 83:1.0 
1.5146312026528814 2:1.0 8:1.0 14:1.0 19:1.0 39:1.0 40:1.0 50:1.0 63:1.0 67:1.0 73:1.0 75:1.0 76:1.0 82:1.0 83:1.0 
1.5158941356071383 2:1.0 8:1.0 16:1.0 22:1.0 36:1.0 41:1.0 51:1.0 64:1.0 67:1.0 73:1.0 74:1.0 76:1.0 82:1.0 83:1.0 
1.5157575585358305 4:1.0 10:1.0 17:1.0 29:1.0 39:1.0 40:1.0 55:1.0 63:1.0 67:1.0 73:1.0 74:1.0 76:1.0 80:1.0 99:1.0 
1.5144262347743724 5:1.0 9:1.0 15:1.0 20:1.0 37:1.0 40:1.0 55:1.0 63:1.0 67:1.0 73:1.0 75:1.0 76:1.0 80:1.0 83:1.0 
1.5149266947183937 3:1.0 6:1.0 17:1.0 22:1.0 36:1.0 41:1.0 52:1.0 62:1.0 67:1.0 72:1.0 74:1.0 76:1.0 80:1.0 83:1.0 
1.5134233543923163 2:1.0 6:1.0 15:1.0 29:1.0 39:1.0 40:1.0 51:1.0 63:1.0 67:1.0 73:1.0 74:1.0 76:1.0 81:1.0 83:1.0 
1.4757624145526387 4:1.0 6:1.0 17:1.0 22:1.0 36:1.0 40:1.0 48:1.0 63:1.0 67:1.0 73:1.0 74:1.0 76:1.0 82:1.0 83:1.0 
1.5341197786837202 1:1.0 6:1.0 18:1.0 20:1.0 37:1.0 40:1.0 55:1.0 63:1.0 67:1.0 73:1.0 74:1.0 76:1.0 80:1.0 83:1.0 
1.4307562985190225 3:1.0 6:1.0 14:1.0 19:1.0 39:1.0 40:1.0 52:1.0 63:1.0 67:1.0 73:1.0 75:1.0 76:1.0 82:1.0 83:1.0 
1.5152736486969984 4:1.0 9:1.0 17:1.0 23:1.0 39:1.0 40:1.0 52:1.0 63:1.0 67:1.0 73:1.0 74:1.0 76:1.0 82:1.0 90:1.0 
1.5157143724543778 5:1.0 11:1.0 15:1.0 22:1.0 36:1.0 40:1.0 51:1.0 63:1.0 67:1.0 73:1.0 74:1.0 77:1.0 80:1.0 83:1.0 
1.5054900674108316 5:1.0 6:1.0 16:1.0 22:1.0 36:1.0 40:1.0 54:1.0 63:1.0 67:1.0 73:1.0 74:1.0 76:1.0 81:1.0 83:1.0 
1.5157474272718499 5:1.0 6:1.0 15:1.0 31:1.0 35:1.0 40:1.0 48:1.0 63:1.0 67:1.0 73:1.0 75:1.0 76:1.0 80:1.0 83:1.0 
1.5249136610445766 3:1.0 10:1.0 14:1.0 19:1.0 39:1.0 40:1.0 52:1.0 61:1.0 67:1.0 72:1.0 74:1.0 76:1.0 81:1.0 83:1.0 
1.4857574564188814 4:1.0 6:1.0 14:1.0 19:1.0 39:1.0 40:1.0 52:1.0 63:1.0 67:1.0 73:1.0 74:1.0 76:1.0 82:1.0 83:1.0 
1.4850393262443864 3:1.0 6:1.0 17:1.0 19:1.0 39:1.0 40:1.0 55:1.0 63:1.0 67:1.0 73:1.0 74:1.0 76:1.0 82:1.0 83:1.0 
1.514137929142145 5:1.0 6:1.0 16:1.0 25:1.0 38:1.0 40:1.0 48:1.0 63:1.0 67:1.0 73:1.0 74:1.0 76:1.0 80:1.0 83:1.0 
1.5241837618092156 5:1.0 7:1.0 14:1.0 20:1.0 37:1.0 40:1.0 51:1.0 63:1.0 67:1.0 73:1.0 74:1.0 76:1.0 82:1.0 83:1.0 
1.5118490872015369 4:1.0 8:1.0 16:1.0 19:1.0 39:1.0 40:1.0 51:1.0 63:1.0 67:1.0 73:1.0 75:1.0 76:1.0 82:1.0 83:1.0 
1.515043895449232 3:1.0 6:1.0 18:1.0 22:1.0 36:1.0 40:1.0 51:1.0 61:1.0 67:1.0 72:1.0 75:1.0 76:1.0 80:1.0 83:1.0 
1.5150792839043024 3:1.0 6:1.0 15:1.0 22:1.0 36:1.0 40:1.0 52:1.0 63:1.0 67:1.0 73:1.0 74:1.0 76:1.0 81:1.0 109:1.0 
1.5148584114024888 5:1.0 7:1.0 14:1.0 19:1.0 39:1.0 41:1.0 56:1.0 64:1.0 67:1.0 73:1.0 75:1.0 76:1.0 82:1.0 83:1.0 
1.4337785077638308 5:1.0 6:1.0 16:1.0 22:1.0 36:1.0 40:1.0 53:1.0 63:1.0 67:1.0 73:1.0 74:1.0 76:1.0 80:1.0 83:1.0 
1.5220323646743816 4:1.0 6:1.0 15:1.0 19:1.0 39:1.0 40:1.0 50:1.0 63:1.0 67:1.0 73:1.0 74:1.0 76:1.0 80:1.0 83:1.0 
1.5138578125946818 4:1.0 10:1.0 15:1.0 20:1.0 37:1.0 40:1.0 59:1.0 63:1.0 67:1.0 73:1.0 74:1.0 76:1.0 80:1.0 83:1.0 
1.4872492999014968 4:1.0 6:1.0 18:1.0 20:1.0 37:1.0 40:1.0 51:1.0 63:1.0 67:1.0 73:1.0 74:1.0 76:1.0 82:1.0 83:1.0 
1.5141350457976785 5:1.0 7:1.0 18:1.0 19:1.0 39:1.0 40:1.0 52:1.0 63:1.0 67:1.0 73:1.0 74:1.0 76:1.0 81:1.0 83:1.0 
1.5149484924752397 4:1.0 6:1.0 18:1.0 29:1.0 39:1.0 40:1.0 52:1.0 63:1.0 67:1.0 73:1.0 74:1.0 76:1.0 81:1.0 83:1.0 
1.4256894349210656 4:1.0 6:1.0 17:1.0 22:1.0 36:1.0 40:1.0 50:1.0 63:1.0 67:1.0 73:1.0 74:1.0 76:1.0 82:1.0 83:1.0 
1.515096834237149 3:1.0 11:1.0 16:1.0 19:1.0 39:1.0 40:1.0 59:1.0 63:1.0 67:1.0 73:1.0 75:1.0 76:1.0 82:1.0 83:1.0 
1.5160471397839703 2:1.0 6:1.0 15:1.0 19:1.0 39:1.0 42:1.0 51:1.0 64:1.0 67:1.0 73:1.0 74:1.0 76:1.0 82:1.0 83:1.0 
32.0 5:1.0 18:1.0 22:1.0 36:1.0 40:1.0 63:1.0 67:1.0 73:1.0 74:1.0 76:1.0 80:1.0 83:1.0 
1.482173198565862 3:1.0 6:1.0 16:1.0 19:1.0 39:1.0 40:1.0 51:1.0 63:1.0 67:1.0 73:1.0 75:1.0 76:1.0 82:1.0 83:1.0 
1.512631478433479 4:1.0 8:1.0 15:1.0 29:1.0 39:1.0 40:1.0 51:1.0 63:1.0 67:1.0 73:1.0 74:1.0 76:1.0 82:1.0 83:1.0 
1.5150049327414112 4:1.0 9:1.0 18:1.0 20:1.0 37:1.0 42:1.0 55:1.0 64:1.0 67:1.0 73:1.0 75:1.0 76:1.0 82:1.0 83:1.0 
1.5139592679083607 4:1.0 8:1.0 15:1.0 20:1.0 37:1.0 40:1.0 51:1.0 63:1.0 67:1.0 73:1.0 74:1.0 76:1.0 82:1.0 83:1.0 
1.5152013381009373 4:1.0 6:1.0 18:1.0 22:1.0 36:1.0 40:1.0 49:1.0 63:1.0 67:1.0 73:1.0 74:1.0 77:1.0 80:1.0 83:1.0 
1.5138162100803343 5:1.0 10:1.0 14:1.0 32:1.0 39:1.0 40:1.0 51:1.0 63:1.0 67:1.0 73:1.0 74:1.0 76:1.0 82:1.0 83:1.0 
1.5112580128162842 4:1.0 8:1.0 14:1.0 29:1.0 39:1.0 40:1.0 50:1.0 63:1.0 67:1.0 73:1.0 74:1.0 76:1.0 82:1.0 
-0.4844272457047826 3:1.0 11:1.0 14:1.0 19:1.0 39:1.0 42:1.0 55:1.0 64:1.0 67:1.0 73:1.0 75:1.0 76:1.0 80:1.0 83:1.0 
-0.48456641009121226 3:1.0 6:1.0 17:1.0 27:1.0 35:1.0 40:1.0 57:1.0 63:1.0 69:1.0 73:1.0 74:1.0 76:1.0 81:1.0 103:1.0 
-0.47553798915865925 4:1.0 6:1.0 15:1.0 21:1.0 35:1.0 40:1.0 57:1.0 63:1.0 67:1.0 73:1.0 74:1.0 77:1.0 80:1.0 83:1.0 
-0.48441568573516786 5:1.0 6:1.0 15:1.0 22:1.0 36:1.0 41:1.0 47:1.0 66:1.0 67:1.0 72:1.0 74:1.0 76:1.0 80:1.0 83:1.0 
-0.4752659394211946 2:1.0 6:1.0 16:1.0 22:1.0 36:1.0 40:1.0 54:1.0 63:1.0 67:1.0 73:1.0 75:1.0 76:1.0 80:1.0 83:1.0 
-0.4846429721767701 2:1.0 6:1.0 14:1.0 20:1.0 37:1.0 41:1.0 47:1.0 64:1.0 67:1.0 73:1.0 74:1.0 76:1.0 82:1.0 83:1.0 
-0.4847890194419346 1:1.0 6:1.0 14:1.0 22:1.0 36:1.0 42:1.0 49:1.0 64:1.0 67:1.0 72:1.0 74:1.0 77:1.0 80:1.0 83:1.0 
-0.46764747652777466 1:1.0 6:1.0 17:1.0 19:1.0 39:1.0 42:1.0 53:1.0 64:1.0 67:1.0 73:1.0 74:1.0 76:1.0 80:1.0 83:1.0 
-0.4844451185042656 2:1.0 6:1.0 18:1.0 20:1.0 37:1.0 42:1.0 48:1.0 64:1.0 71:1.0 73:1.0 74:1.0 76:1.0 81:1.0 83:1.0 
-0.4844103745348265 5:1.0 16:1.0 30:1.0 35:1.0 41:1.0 64:1.0 67:1.0 73:1.0 74:1.0 76:1.0 80:1.0 83:1.0 
-0.5138648627073826 5:1.0 6:1.0 15:1.0 20:1.0 37:1.0 40:1.0 50:1.0 63:1.0 67:1.0 73:1.0 75:1.0 76:1.0 80:1.0 83:1.0 
-0.4849038559275298 5:1.0 7:1.0 16:1.0 29:1.0 39:1.0 40:1.0 48:1.0 63:1.0 67:1.0 73:1.0 74:1.0 76:1.0 78:1.0 83:1.0 
-0.4851083425570352 1:1.0 11:1.0 18:1.0 20:1.0 37:1.0 42:1.0 59:1.0 62:1.0 71:1.0 72:1.0 74:1.0 76:1.0 80:1.0 83:1.0 
-0.4847690954842194 2:1.0 11:1.0 18:1.0 20:1.0 37:1.0 40:1.0 54:1.0 63:1.0 67:1.0 73:1.0 74:1.0 76:1.0 80:1.0 83:1.0 
-0.48435292584316736 1:1.0 6:1.0 17:1.0 22:1.0 36:1.0 42:1.0 53:1.0 64:1.0 67:1.0 73:1.0 74:1.0 76:1.0 82:1.0 107:1.0 
-0.5119853592925163 1:1.0 6:1.0 14:1.0 20:1.0 37:1.0 40:1.0 55:1.0 63:1.0 67:1.0 73:1.0 74:1.0 76:1.0 80:1.0 83:1.0 
-0.48429642878260454 4:1.0 6:1.0 18:1.0 22:1.0 36:1.0 44:1.0 51:1.0 66:1.0 71:1.0 72:1.0 74:1.0 76:1.0 80:1.0 83:1.0 
-0.4843746183266899 3:1.0 6:1.0 16:1.0 19:1.0 39:1.0 42:1.0 48:1.0 62:1.0 67:1.0 73:1.0 74:1.0 76:1.0 78:1.0 83:1.0 
-0.4847439392912498 1:1.0 10:1.0 18:1.0 22:1.0 36:1.0 42:1.0 56:1.0 64:1.0 67:1.0 73:1.0 74:1.0 76:1.0 80:1.0 100:1.0 
-0.4763894503104094 5:1.0 6:1.0 14:1.0 20:1.0 37:1.0 41:1.0 55:1.0 64:1.0 67:1.0 72:1.0 74:1.0 76:1.0 78:1.0 83:1.0 
-0.47182158501556565 3:1.0 6:1.0 14:1.0 22:1.0 36:1.0 40:1.0 54:1.0 63:1.0 67:1.0 73:1.0 74:1.0 76:1.0 80:1.0 83:1.0 
-0.48482935396512156 3:1.0 10:1.0 18:1.0 22:1.0 36:1.0 43:1.0 51:1.0 64:1.0 71:1.0 73:1.0 74:1.0 76:1.0 80:1.0 83:1.0 
-0.5146353356629613 5:1.0 8:1.0 14:1.0 19:1.0 39:1.0 40:1.0 50:1.0 63:1.0 67:1.0 73:1.0 74:1.0 76:1.0 82:1.0 83:1.0 
-0.46650388386740166 3:1.0 7:1.0 18:1.0 22:1.0 36:1.0 40:1.0 50:1.0 63:1.0 67:1.0 73:1.0 74:1.0 76:1.0 82:1.0 83:1.0 
-0.48451316965866476 2:1.0 6:1.0 14:1.0 20:1.0 37:1.0 40:1.0 48:1.0 63:1.0 67:1.0 73:1.0 74:1.0 76:1.0 81:1.0 83:1.0 
-0.5138589477631974 5:1.0 6:1.0 14:1.0 22:1.0 36:1.0 40:1.0 48:1.0 63:1.0 67:1.0 73:1.0 74:1.0 76:1.0 78:1.0 83:1.0 
-0.5485723941982322 5:1.0 15:1.0 22:1.0 36:1.0 40:1.0 63:1.0 67:1.0 73:1.0 74:1.0 76:1.0 82:1.0 83:1.0 
-0.484443480750631 1:1.0 15:1.0 21:1.0 35:1.0 45:1.0 62:1.0 68:1.0 72:1.0 74:1.0 77:1.0 80:1.0 93:1.0 
-0.48437903439907226 3:1.0 6:1.0 14:1.0 20:1.0 37:1.0 41:1.0 55:1.0 66:1.0 71:1.0 72:1.0 74:1.0 76:1.0 80:1.0 83:1.0 
-0.4763360150332382 2:1.0 6:1.0 17:1.0 22:1.0 36:1.0 40:1.0 49:1.0 63:1.0 67:1.0 73:1.0 74:1.0 76:1.0 80:1.0 103:1.0 
-0.4842238594319924 5:1.0 6:1.0 16:1.0 20:1.0 37:1.0 41:1.0 55:1.0 64:1.0 68:1.0 72:1.0 74:1.0 76:1.0 80:1.0 83:1.0 
-0.4848692959753178 2:1.0 6:1.0 16:1.0 25:1.0 38:1.0 40:1.0 55:1.0 63:1.0 67:1.0 73:1.0 74:1.0 77:1.0 81:1.0 83:1.0 
-0.48477339394358204 5:1.0 6:1.0 15:1.0 22:1.0 36:1.0 42:1.0 50:1.0 64:1.0 67:1.0 73:1.0 74:1.0 76:1.0 79:1.0 83:1.0 
-0.5125556171038852 5:1.0 7:1.0 14:1.0 22:1.0 36:1.0 40:1.0 56:1.0 63:1.0 67:1.0 73:1.0 74:1.0 77:1.0 82:1.0 83:1.0 
-0.48419185910644125 1:1.0 6:1.0 17:1.0 22:1.0 36:1.0 42:1.0 50:1.0 64:1.0 67:1.0 72:1.0 75:1.0 76:1.0 80:1.0 83:1.0 
-0.4840142505741168 3:1.0 6:1.0 15:1.0 22:1.0 36:1.0 42:1.0 57:1.0 62:1.0 67:1.0 73:1.0 74:1.0 76:1.0 80:1.0 83:1.0 
-0.4848258362041572 4:1.0 6:1.0 14:1.0 26:1.0 35:1.0 41:1.0 54:1.0 64:1.0 67:1.0 72:1.0 74:1.0 76:1.0 80:1.0 83:1.0 
-0.4745727838223749 1:1.0 6:1.0 14:1.0 22:1.0 36:1.0 42:1.0 53:1.0 62:1.0 67:1.0 72:1.0 74:1.0 76:1.0 80:1.0 83:1.0 
-0.47575605833327567 3:1.0 6:1.0 15:1.0 22:1.0 36:1.0 40:1.0 48:1.0 63:1.0 67:1.0 73:1.0 74:1.0 76:1.0 78:1.0 83:1.0 
-0.484711385147566 1:1.0 6:1.0 17:1.0 20:1.0 37:1.0 42:1.0 51:1.0 64:1.0 67:1.0 72:1.0 75:1.0 76:1.0 80:1.0 83:1.0 
-0.4845648694522557 5:1.0 7:1.0 15:1.0 22:1.0 36:1.0 42:1.0 56:1.0 66:1.0 67:1.0 73:1.0 74:1.0 76:1.0 81:1.0 83:1.0 
-0.4863827017302863 3:1.0 6:1.0 16:1.0 29:1.0 39:1.0 40:1.0 52:1.0 63:1.0 67:1.0 73:1.0 74:1.0 76:1.0 78:1.0 83:1.0 
-0.48411755212179924 3:1.0 6:1.0 15:1.0 22:1.0 36:1.0 42:1.0 49:1.0 64:1.0 67:1.0 73:1.0 74:1.0 76:1.0 82:1.0 83:1.0 
-0.47453519232229924 1:1.0 6:1.0 14:1.0 20:1.0 37:1.0 42:1.0 50:1.0 64:1.0 67:1.0 72:1.0 74:1.0 76:1.0 82:1.0 83:1.0 
-0.4854310934968929 5:1.0 6:1.0 15:1.0 22:1.0 36:1.0 40:1.0 54:1.0 63:1.0 67:1.0 73:1.0 75:1.0 76:1.0 80:1.0 83:1.0 
-0.48449283680497074 2:1.0 6:1.0 15:1.0 19:1.0 39:1.0 42:1.0 50:1.0 64:1.0 71:1.0 72:1.0 74:1.0 77:1.0 80:1.0 83:1.0 
-0.4746002905971524 3:1.0 6:1.0 15:1.0 22:1.0 36:1.0 41:1.0 48:1.0 64:1.0 67:1.0 73:1.0 74:1.0 76:1.0 80:1.0 83:1.0 
-0.48618081449208084 4:1.0 6:1.0 18:1.0 25:1.0 38:1.0 40:1.0 57:1.0 63:1.0 67:1.0 73:1.0 74:1.0 76:1.0 82:1.0 83:1.0 
-0.5851353367370828 4:1.0 6:1.0 17:1.0 22:1.0 36:1.0 40:1.0 57:1.0 63:1.0 67:1.0 73:1.0 74:1.0 76:1.0 82:1.0 83:1.0 
-0.48368357543431567 3:1.0 16:1.0 22:1.0 36:1.0 41:1.0 64:1.0 67:1.0 72:1.0 74:1.0 76:1.0 80:1.0 83:1.0 
-0.4853278426891918 5:1.0 7:1.0 17:1.0 20:1.0 37:1.0 40:1.0 50:1.0 63:1.0 67:1.0 73:1.0 74:1.0 76:1.0 82:1.0 83:1.0 
-0.532118477746312 5:1.0 6:1.0 18:1.0 22:1.0 36:1.0 40:1.0 48:1.0 63:1.0 67:1.0 73:1.0 74:1.0 76:1.0 82:1.0 83:1.0 
-0.4577176940146566 1:1.0 6:1.0 16:1.0 20:1.0 37:1.0 42:1.0 49:1.0 62:1.0 67:1.0 72:1.0 74:1.0 76:1.0 78:1.0 83:1.0 
-0.4937303719440847 5:1.0 6:1.0 14:1.0 20:1.0 37:1.0 40:1.0 48:1.0 63:1.0 67:1.0 73:1.0 74:1.0 76:1.0 80:1.0 83:1.0 
-0.48379542518463325 5:1.0 6:1.0 16:1.0 22:1.0 36:1.0 44:1.0 55:1.0 62:1.0 67:1.0 72:1.0 74:1.0 76:1.0 80:1.0 83:1.0 
-0.4855439216495963 4:1.0 7:1.0 16:1.0 20:1.0 37:1.0 40:1.0 56:1.0 63:1.0 67:1.0 73:1.0 74:1.0 76:1.0 82:1.0 83:1.0 
-0.48412046383406454 4:1.0 6:1.0 14:1.0 20:1.0 37:1.0 42:1.0 55:1.0 62:1.0 67:1.0 72:1.0 74:1.0 76:1.0 80:1.0 83:1.0 
-0.4849035361540444 5:1.0 6:1.0 18:1.0 22:1.0 36:1.0 43:1.0 55:1.0 64:1.0 67:1.0 72:1.0 74:1.0 76:1.0 78:1.0 83:1.0 
-0.43377749500336316 1:1.0 6:1.0 15:1.0 20:1.0 37:1.0 42:1.0 55:1.0 62:1.0 67:1.0 73:1.0 74:1.0 76:1.0 78:1.0 83:1.0 
-0.47575671076257914 3:1.0 11:1.0 14:1.0 20:1.0 37:1.0 40:1.0 51:1.0 63:1.0 67:1.0 73:1.0 74:1.0 76:1.0 80:1.0 83:1.0 
-0.4845807916842621 3:1.0 6:1.0 17:1.0 24:1.0 38:1.0 42:1.0 55:1.0 62:1.0 67:1.0 72:1.0 74:1.0 76:1.0 81:1.0 83:1.0 
-0.4843583180545551 1:1.0 6:1.0 18:1.0 22:1.0 36:1.0 41:1.0 48:1.0 64:1.0 67:1.0 73:1.0 74:1.0 76:1.0 82:1.0 83:1.0 
-0.48512294646601917 3:1.0 6:1.0 14:1.0 20:1.0 37:1.0 40:1.0 48:1.0 63:1.0 67:1.0 73:1.0 74:1.0 77:1.0 81:1.0 83:1.0 
-0.48514040268886305 1:1.0 6:1.0 14:1.0 25:1.0 38:1.0 42:1.0 59:1.0 64:1.0 67:1.0 73:1.0 74:1.0 76:1.0 82:1.0 83:1.0 
-0.48463840971974054 1:1.0 6:1.0 17:1.0 21:1.0 35:1.0 42:1.0 55:1.0 62:1.0 68:1.0 72:1.0 74:1.0 76:1.0 78:1.0 83:1.0 
-0.4845875135621073 2:1.0 6:1.0 14:1.0 20:1.0 37:1.0 41:1.0 51:1.0 66:1.0 67:1.0 72:1.0 74:1.0 76:1.0 80:1.0 83:1.0 
-0.48495721019235205 5:1.0 11:1.0 14:1.0 22:1.0 36:1.0 41:1.0 51:1.0 64:1.0 67:1.0 72:1.0 74:1.0 76:1.0 82:1.0 83:1.0 
-0.484317707564864 4:1.0 6:1.0 14:1.0 22:1.0 36:1.0 42:1.0 49:1.0 64:1.0 71:1.0 72:1.0 74:1.0 76:1.0 81:1.0 83:1.0 
-0.4847359083455479 5:1.0 6:1.0 15:1.0 26:1.0 35:1.0 41:1.0 49:1.0 64:1.0 67:1.0 72:1.0 74:1.0 76:1.0 79:1.0 87:1.0 
-0.4835029148803981 2:1.0 6:1.0 17:1.0 22:1.0 36:1.0 42:1.0 49:1.0 64:1.0 67:1.0 72:1.0 74:1.0 76:1.0 79:1.0 83:1.0 
-0.4672127354889456 3:1.0 6:1.0 17:1.0 22:1.0 36:1.0 42:1.0 54:1.0 64:1.0 67:1.0 72:1.0 74:1.0 76:1.0 80:1.0 83:1.0 
-0.48369942173211794 1:1.0 6:1.0 16:1.0 22:1.0 36:1.0 42:1.0 48:1.0 65:1.0 67:1.0 73:1.0 74:1.0 76:1.0 80:1.0 83:1.0 
-0.48427782511443834 2:1.0 11:1.0 16:1.0 19:1.0 39:1.0 42:1.0 55:1.0 64:1.0 67:1.0 73:1.0 74:1.0 76:1.0 79:1.0 83:1.0 
-0.4847699468034313 2:1.0 6:1.0 18:1.0 20:1.0 37:1.0 41:1.0 55:1.0 64:1.0 67:1.0 72:1.0 74:1.0 76:1.0 81:1.0 83:1.0 
-0.48512885881128015 1:1.0 6:1.0 18:1.0 22:1.0 36:1.0 42:1.0 49:1.0 66:1.0 67:1.0 73:1.0 74:1.0 76:1.0 80:1.0 119:1.0 
-0.4843174690034244 2:1.0 6:1.0 16:1.0 20:1.0 37:1.0 42:1.0 50:1.0 64:1.0 71:1.0 72:1.0 74:1.0 76:1.0 79:1.0 83:1.0 
-0.48434554144845354 3:1.0 6:1.0 14:1.0 22:1.0 36:1.0 42:1.0 48:1.0 66:1.0 67:1.0 73:1.0 74:1.0 76:1.0 79:1.0 83:1.0 
-0.4851046010087019 2:1.0 6:1.0 18:1.0 22:1.0 36:1.0 42:1.0 56:1.0 62:1.0 71:1.0 73:1.0 74:1.0 76:1.0 78:1.0 83:1.0 
-0.4851040609850976 5:1.0 6:1.0 16:1.0 20:1.0 37:1.0 42:1.0 55:1.0 65:1.0 71:1.0 72:1.0 74:1.0 76:1.0 80:1.0 101:1.0 
-0.4844658753872342 4:1.0 10:1.0 15:1.0 29:1.0 39:1.0 41:1.0 52:1.0 64:1.0 67:1.0 72:1.0 74:1.0 76:1.0 78:1.0 83:1.0 
-0.48476939139685377 2:1.0 7:1.0 17:1.0 25:1.0 38:1.0 41:1.0 50:1.0 66:1.0 67:1.0 73:1.0 74:1.0 76:1.0 82:1.0 83:1.0 
-0.48497864649760575 2:1.0 9:1.0 16:1.0 24:1.0 38:1.0 40:1.0 55:1.0 63:1.0 67:1.0 73:1.0 74:1.0 76:1.0 82:1.0 83:1.0 
-0.4403825879323654 1:1.0 6:1.0 16:1.0 20:1.0 37:1.0 42:1.0 55:1.0 64:1.0 67:1.0 72:1.0 74:1.0 76:1.0 80:1.0 83:1.0 
-0.48459384027441116 1:1.0 6:1.0 18:1.0 31:1.0 35:1.0 42:1.0 50:1.0 65:1.0 67:1.0 72:1.0 74:1.0 76:1.0 78:1.0 83:1.0 
-0.4848823083493314 5:1.0 6:1.0 15:1.0 20:1.0 37:1.0 44:1.0 48:1.0 64:1.0 67:1.0 73:1.0 74:1.0 76:1.0 80:1.0 83:1.0 
-0.4851346455965824 5:1.0 10:1.0 16:1.0 19:1.0 39:1.0 43:1.0 52:1.0 64:1.0 67:1.0 73:1.0 74:1.0 76:1.0 78:1.0 
-0.48495131255358886 4:1.0 6:1.0 15:1.0 22:1.0 36:1.0 42:1.0 50:1.0 64:1.0 71:1.0 72:1.0 74:1.0 76:1.0 81:1.0 83:1.0 
-0.514515215638917 3:1.0 10:1.0 17:1.0 19:1.0 39:1.0 40:1.0 55:1.0 63:1.0 67:1.0 73:1.0 74:1.0 76:1.0 80:1.0 83:1.0 
-0.4755657031482989 3:1.0 6:1.0 15:1.0 22:1.0 36:1.0 42:1.0 50:1.0 64:1.0 67:1.0 73:1.0 74:1.0 76:1.0 80:1.0 83:1.0 
-0.4848927119131916 2:1.0 11:1.0 15:1.0 29:1.0 39:1.0 42:1.0 55:1.0 64:1.0 67:1.0 73:1.0 74:1.0 76:1.0 78:1.0 83:1.0 
-0.47639043478791715 5:1.0 10:1.0 15:1.0 20:1.0 37:1.0 41:1.0 55:1.0 66:1.0 67:1.0 72:1.0 74:1.0 76:1.0 80:1.0 83:1.0 
-0.48438139191963125 1:1.0 6:1.0 18:1.0 31:1.0 35:1.0 43:1.0 49:1.0 62:1.0 67:1.0 72:1.0 74:1.0 76:1.0 78:1.0 83:1.0 
-0.4754141866782949 2:1.0 7:1.0 15:1.0 22:1.0 36:1.0 40:1.0 48:1.0 63:1.0 67:1.0 73:1.0 74:1.0 76:1.0 80:1.0 83:1.0 
-0.48602561138371503 5:1.0 8:1.0 14:1.0 19:1.0 39:1.0 40:1.0 54:1.0 63:1.0 67:1.0 73:1.0 75:1.0 76:1.0 78:1.0 83:1.0 
-0.4842270894175838 5:1.0 6:1.0 17:1.0 20:1.0 37:1.0 41:1.0 50:1.0 66:1.0 67:1.0 72:1.0 74:1.0 76:1.0 82:1.0 83:1.0 
-0.4840385078909306 3:1.0 6:1.0 14:1.0 22:1.0 36:1.0 41:1.0 50:1.0 64:1.0 67:1.0 72:1.0 74:1.0 76:1.0 82:1.0 83:1.0 
-32.0 5:1.0 16:1.0 22:1.0 36:1.0 40:1.0 63:1.0 67:1.0 73:1.0 74:1.0 76:1.0 80:1.0 83:1.0 
-0.4850887006881644 3:1.0 6:1.0 15:1.0 19:1.0 39:1.0 40:1.0 52:1.0 63:1.0 68:1.0 73:1.0 74:1.0 76:1.0 81:1.0 
-0.4746044410113728 1:1.0 6:1.0 17:1.0 20:1.0 37:1.0 42:1.0 49:1.0 64:1.0 67:1.0 72:1.0 74:1.0 76:1.0 80:1.0 83:1.0 
-0.48465269339610434 2:1.0 6:1.0 17:1.0 33:1.0 35:1.0 42:1.0 57:1.0 64:1.0 67:1.0 73:1.0 74:1.0 76:1.0 80:1.0 103:1.0 
-0.48481176459243447 1:1.0 6:1.0 15:1.0 29:1.0 39:1.0 42:1.0 50:1.0 64:1.0 67:1.0 73:1.0 74:1.0 76:1.0 78:1.0 83:1.0 
-0.48431546189799835 4:1.0 9:1.0 18:1.0 21:1.0 35:1.0 42:1.0 47:1.0 64:1.0 67:1.0 73:1.0 74:1.0 77:1.0 80:1.0 83:1.0 
-0.47620941075389445 1:1.0 11:1.0 18:1.0 20:1.0 37:1.0 42:1.0 55:1.0 64:1.0 67:1.0 72:1.0 74:1.0 76:1.0 78:1.0 83:1.0 
-0.4850384209509614 3:1.0 7:1.0 17:1.0 20:1.0 37:1.0 43:1.0 49:1.0 62:1.0 67:1.0 72:1.0 74:1.0 76:1.0 80:1.0 95:1.0 
-0.4848184578683932 3:1.0 6:1.0 18:1.0 23:1.0 39:1.0 42:1.0 52:1.0 64:1.0 67:1.0 73:1.0 74:1.0 76:1.0 82:1.0 83:1.0 
-0.48439937235310976 2:1.0 6:1.0 17:1.0 20:1.0 37:1.0 42:1.0 52:1.0 64:1.0 67:1.0 73:1.0 74:1.0 77:1.0 80:1.0 
-0.47491686269494304 1:1.0 6:1.0 18:1.0 20:1.0 37:1.0 42:1.0 49:1.0 62:1.0 67:1.0 73:1.0 74:1.0 76:1.0 79:1.0 83:1.0 
-0.5138502993647204 3:1.0 6:1.0 16:1.0 20:1.0 37:1.0 40:1.0 52:1.0 63:1.0 67:1.0 73:1.0 74:1.0 76:1.0 82:1.0 83:1.0 
-0.48422667752908016 3:1.0 6:1.0 15:1.0 21:1.0 35:1.0 40:1.0 48:1.0 63:1.0 67:1.0 73:1.0 74:1.0 76:1.0 82:1.0 83:1.0 
-32.0 2:1.0 9:1.0 18:1.0 19:1.0 39:1.0 40:1.0 51:1.0 63:1.0 67:1.0 73:1.0 74:1.0 76:1.0 80:1.0 83:1.0 
-0.4894844099470707 4:1.0 16:1.0 22:1.0 36:1.0 40:1.0 63:1.0 67:1.0 73:1.0 74:1.0 76:1.0 80:1.0 83:1.0 
-0.48464074879729674 2:1.0 6:1.0 17:1.0 22:1.0 36:1.0 42:1.0 59:1.0 65:1.0 71:1.0 73:1.0 74:1.0 76:1.0 80:1.0 83:1.0 
-0.48473180300482754 1:1.0 9:1.0 14:1.0 22:1.0 36:1.0 46:1.0 50:1.0 61:1.0 67:1.0 72:1.0 74:1.0 76:1.0 80:1.0 83:1.0 
-0.4846529917495049 3:1.0 6:1.0 14:1.0 22:1.0 36:1.0 43:1.0 55:1.0 66:1.0 67:1.0 72:1.0 74:1.0 76:1.0 81:1.0 83:1.0 
-0.48473818426191745 2:1.0 10:1.0 15:1.0 29:1.0 39:1.0 42:1.0 55:1.0 64:1.0 67:1.0 72:1.0 74:1.0 76:1.0 80:1.0 83:1.0 
-0.4850784282386521 2:1.0 6:1.0 18:1.0 34:1.0 35:1.0 42:1.0 49:1.0 65:1.0 67:1.0 72:1.0 74:1.0 76:1.0 79:1.0 103:1.0 
-0.46657836142118564 1:1.0 18:1.0 22:1.0 36:1.0 42:1.0 62:1.0 67:1.0 73:1.0 74:1.0 76:1.0 78:1.0 83:1.0 
-0.48429531791129093 2:1.0 11:1.0 14:1.0 19:1.0 39:1.0 42:1.0 52:1.0 64:1.0 67:1.0 73:1.0 74:1.0 76:1.0 78:1.0 83:1.0 
-0.48457369390978633 2:1.0 16:1.0 22:1.0 36:1.0 42:1.0 62:1.0 71:1.0 73:1.0 74:1.0 76:1.0 80:1.0 83:1.0 
-0.4758634066428774 1:1.0 11:1.0 15:1.0 20:1.0 37:1.0 42:1.0 49:1.0 62:1.0 67:1.0 73:1.0 74:1.0 76:1.0 80:1.0 83:1.0 
-0.46572046462401295 1:1.0 6:1.0 16:1.0 20:1.0 37:1.0 42:1.0 55:1.0 62:1.0 67:1.0 72:1.0 74:1.0 76:1.0 80:1.0 83:1.0 
-0.48139961167016143 4:1.0 6:1.0 17:1.0 22:1.0 36:1.0 40:1.0 50:1.0 63:1.0 67:1.0 73:1.0 74:1.0 76:1.0 80:1.0 83:1.0 
-0.4753770910655951 4:1.0 6:1.0 14:1.0 22:1.0 36:1.0 42:1.0 54:1.0 64:1.0 67:1.0 73:1.0 74:1.0 76:1.0 80:1.0 83:1.0 
-0.5130027945828575 3:1.0 6:1.0 18:1.0 19:1.0 39:1.0 40:1.0 50:1.0 61:1.0 67:1.0 72:1.0 74:1.0 76:1.0 78:1.0 83:1.0 
-0.48511214354695564 2:1.0 6:1.0 14:1.0 24:1.0 38:1.0 40:1.0 53:1.0 63:1.0 67:1.0 73:1.0 74:1.0 76:1.0 80:1.0 83:1.0 
-0.4844214443713654 4:1.0 6:1.0 15:1.0 22:1.0 36:1.0 45:1.0 48:1.0 64:1.0 67:1.0 73:1.0 74:1.0 76:1.0 80:1.0 100:1.0 
-0.4844016368116107 4:1.0 6:1.0 14:1.0 20:1.0 37:1.0 42:1.0 56:1.0 65:1.0 67:1.0 73:1.0 74:1.0 76:1.0 82:1.0 83:1.0 
-0.4844196709620068 5:1.0 6:1.0 17:1.0 21:1.0 35:1.0 41:1.0 48:1.0 65:1.0 67:1.0 72:1.0 74:1.0 76:1.0 80:1.0 83:1.0 
-0.4875033101131319 3:1.0 6:1.0 18:1.0 20:1.0 37:1.0 40:1.0 51:1.0 63:1.0 67:1.0 73:1.0 74:1.0 76:1.0 80:1.0 83:1.0 
-0.4845712686677782 1:1.0 6:1.0 14:1.0 22:1.0 36:1.0 43:1.0 49:1.0 62:1.0 67:1.0 72:1.0 74:1.0 76:1.0 79:1.0 83:1.0 
-0.469606303810907 3:1.0 7:1.0 17:1.0 22:1.0 36:1.0 40:1.0 48:1.0 63:1.0 67:1.0 73:1.0 74:1.0 76:1.0 82:1.0 83:1.0 
-0.4848448938377255 5:1.0 16:1.0 22:1.0 36:1.0 40:1.0 63:1.0 71:1.0 73:1.0 74:1.0 76:1.0 78:1.0 83:1.0 
-0.48563319520667053 2:1.0 6:1.0 17:1.0 25:1.0 38:1.0 40:1.0 54:1.0 63:1.0 69:1.0 73:1.0 74:1.0 76:1.0 80:1.0 83:1.0 
-0.4850966834363621 3:1.0 10:1.0 18:1.0 24:1.0 38:1.0 41:1.0 52:1.0 64:1.0 67:1.0 73:1.0 74:1.0 76:1.0 82:1.0 83:1.0 
-0.4869923508493916 4:1.0 8:1.0 18:1.0 20:1.0 37:1.0 40:1.0 50:1.0 63:1.0 67:1.0 73:1.0 74:1.0 76:1.0 82:1.0 83:1.0 
-0.4844378102830282 5:1.0 6:1.0 14:1.0 22:1.0 36:1.0 41:1.0 49:1.0 64:1.0 67:1.0 72:1.0 74:1.0 76:1.0 79:1.0 83:1.0 
-0.4771410311708969 2:1.0 6:1.0 16:1.0 22:1.0 36:1.0 40:1.0 57:1.0 63:1.0 67:1.0 73:1.0 74:1.0 76:1.0 82:1.0 83:1.0 
-0.4856475923465745 3:1.0 6:1.0 18:1.0 22:1.0 36:1.0 41:1.0 51:1.0 66:1.0 67:1.0 72:1.0 74:1.0 77:1.0 82:1.0 83:1.0 
-0.41572445759434035 1:1.0 6:1.0 18:1.0 20:1.0 37:1.0 42:1.0 49:1.0 62:1.0 67:1.0 73:1.0 74:1.0 76:1.0 78:1.0 83:1.0 
-0.476237030745207 1:1.0 6:1.0 15:1.0 22:1.0 36:1.0 42:1.0 53:1.0 62:1.0 71:1.0 72:1.0 74:1.0 76:1.0 78:1.0 83:1.0 
-0.5402693585214595 4:1.0 6:1.0 15:1.0 22:1.0 36:1.0 40:1.0 50:1.0 63:1.0 67:1.0 73:1.0 74:1.0 76:1.0 80:1.0 83:1.0 
-0.4845817442133911 1:1.0 6:1.0 17:1.0 22:1.0 36:1.0 42:1.0 52:1.0 64:1.0 67:1.0 72:1.0 74:1.0 76:1.0 80:1.0 87:1.0 
-0.48494864541205096 4:1.0 6:1.0 17:1.0 33:1.0 35:1.0 40:1.0 57:1.0 63:1.0 67:1.0 73:1.0 74:1.0 76:1.0 79:1.0 103:1.0 
-0.4848049090719017 2:1.0 6:1.0 18:1.0 20:1.0 37:1.0 41:1.0 53:1.0 64:1.0 67:1.0 73:1.0 74:1.0 76:1.0 82:1.0 83:1.0 
-0.47504042637141747 2:1.0 6:1.0 18:1.0 22:1.0 36:1.0 40:1.0 57:1.0 63:1.0 67:1.0 73:1.0 74:1.0 76:1.0 81:1.0 83:1.0 
-0.5125390602156189 3:1.0 6:1.0 14:1.0 22:1.0 36:1.0 40:1.0 48:1.0 63:1.0 67:1.0 73:1.0 74:1.0 77:1.0 80:1.0 83:1.0 
-0.4852368772345796 2:1.0 6:1.0 15:1.0 20:1.0 37:1.0 40:1.0 55:1.0 63:1.0 67:1.0 73:1.0 74:1.0 76:1.0 78:1.0 83:1.0 
-0.48477201534295683 2:1.0 10:1.0 15:1.0 22:1.0 36:1.0 42:1.0 59:1.0 65:1.0 71:1.0 73:1.0 74:1.0 77:1.0 80:1.0 83:1.0 
-0.4867033157069686 2:1.0 6:1.0 17:1.0 19:1.0 39:1.0 40:1.0 49:1.0 63:1.0 67:1.0 73:1.0 74:1.0 76:1.0 82:1.0 83:1.0 
-0.4843616007649301 3:1.0 11:1.0 15:1.0 19:1.0 39:1.0 42:1.0 52:1.0 66:1.0 67:1.0 72:1.0 74:1.0 76:1.0 78:1.0 83:1.0 
-0.48420257579961007 5:1.0 6:1.0 16:1.0 20:1.0 37:1.0 41:1.0 50:1.0 64:1.0 67:1.0 72:1.0 74:1.0 76:1.0 82:1.0 83:1.0 
-0.47517950600254444 1:1.0 16:1.0 20:1.0 37:1.0 42:1.0 62:1.0 71:1.0 73:1.0 74:1.0 76:1.0 78:1.0 83:1.0 
-0.48459703350432665 5:1.0 6:1.0 15:1.0 22:1.0 36:1.0 40:1.0 49:1.0 63:1.0 71:1.0 73:1.0 74:1.0 76:1.0 82:1.0 85:1.0 
-0.4845071187430903 5:1.0 6:1.0 14:1.0 29:1.0 39:1.0 41:1.0 52:1.0 64:1.0 67:1.0 72:1.0 74:1.0 76:1.0 80:1.0 83:1.0 
-0.48511124113385484 4:1.0 14:1.0 22:1.0 36:1.0 43:1.0 66:1.0 67:1.0 72:1.0 74:1.0 76:1.0 78:1.0 83:1.0 
-0.4764229510145741 4:1.0 6:1.0 18:1.0 21:1.0 35:1.0 40:1.0 57:1.0 63:1.0 67:1.0 73:1.0 74:1.0 77:1.0 80:1.0 83:1.0 
-0.47435807942186353 1:1.0 6:1.0 17:1.0 20:1.0 37:1.0 42:1.0 50:1.0 62:1.0 67:1.0 72:1.0 74:1.0 76:1.0 80:1.0 83:1.0 
-0.45742846784669594 3:1.0 6:1.0 17:1.0 22:1.0 36:1.0 42:1.0 55:1.0 64:1.0 67:1.0 72:1.0 74:1.0 76:1.0 80:1.0 83:1.0 
-0.4842455856400032 2:1.0 6:1.0 16:1.0 22:1.0 36:1.0 42:1.0 53:1.0 62:1.0 67:1.0 72:1.0 74:1.0 76:1.0 80:1.0 83:1.0 
-0.461266842844505 2:1.0 6:1.0 14:1.0 22:1.0 36:1.0 40:1.0 51:1.0 63:1.0 67:1.0 73:1.0 74:1.0 76:1.0 82:1.0 83:1.0 
-0.483585938711375 1:1.0 6:1.0 16:1.0 20:1.0 37:1.0 42:1.0 53:1.0 64:1.0 67:1.0 73:1.0 74:1.0 76:1.0 78:1.0 83:1.0 
-0.48501768875168305 4:1.0 11:1.0 15:1.0 22:1.0 36:1.0 40:1.0 59:1.0 63:1.0 67:1.0 73:1.0 74:1.0 76:1.0 80:1.0 83:1.0 
-0.484905763083811 5:1.0 7:1.0 15:1.0 25:1.0 38:1.0 40:1.0 56:1.0 63:1.0 67:1.0 73:1.0 74:1.0 76:1.0 80:1.0 83:1.0 
-0.4851037536238745 4:1.0 8:1.0 16:1.0 19:1.0 39:1.0 42:1.0 50:1.0 64:1.0 67:1.0 73:1.0 75:1.0 76:1.0 82:1.0 83:1.0 
-0.484623098537661 1:1.0 6:1.0 17:1.0 21:1.0 35:1.0 40:1.0 48:1.0 63:1.0 67:1.0 73:1.0 74:1.0 76:1.0 82:1.0 83:1.0 
-0.4762852772065631 3:1.0 6:1.0 16:1.0 22:1.0 36:1.0 40:1.0 57:1.0 63:1.0 67:1.0 73:1.0 75:1.0 76:1.0 80:1.0 83:1.0 
-0.48465216882903295 1:1.0 6:1.0 17:1.0 22:1.0 36:1.0 40:1.0 56:1.0 63:1.0 67:1.0 73:1.0 74:1.0 76:1.0 80:1.0 83:1.0 
-0.48347580664534134 1:1.0 18:1.0 20:1.0 37:1.0 42:1.0 62:1.0 67:1.0 72:1.0 74:1.0 76:1.0 79:1.0 83:1.0 
-0.48417679993138274 1:1.0 6:1.0 15:1.0 20:1.0 37:1.0 42:1.0 55:1.0 62:1.0 68:1.0 72:1.0 74:1.0 76:1.0 80:1.0 102:1.0 
-0.47566808142526396 5:1.0 6:1.0 14:1.0 22:1.0 36:1.0 44:1.0 49:1.0 66:1.0 67:1.0 72:1.0 74:1.0 76:1.0 78:1.0 83:1.0 
-0.48406285259939413 1:1.0 6:1.0 17:1.0 19:1.0 39:1.0 42:1.0 50:1.0 64:1.0 67:1.0 72:1.0 74:1.0 76:1.0 81:1.0 83:1.0 
-0.4837155929325406 1:1.0 6:1.0 17:1.0 20:1.0 37:1.0 42:1.0 50:1.0 64:1.0 67:1.0 73:1.0 74:1.0 76:1.0 81:1.0 83:1.0 
-0.4758519941188332 5:1.0 6:1.0 14:1.0 22:1.0 36:1.0 42:1.0 55:1.0 66:1.0 67:1.0 72:1.0 74:1.0 76:1.0 80:1.0 83:1.0 
-0.4759405080689617 1:1.0 6:1.0 14:1.0 22:1.0 36:1.0 42:1.0 53:1.0 62:1.0 67:1.0 73:1.0 74:1.0 76:1.0 79:1.0 83:1.0 
-0.4838857163147242 1:1.0 6:1.0 16:1.0 28:1.0 35:1.0 42:1.0 50:1.0 64:1.0 67:1.0 72:1.0 74:1.0 76:1.0 78:1.0 
-0.476404779898377 5:1.0 6:1.0 15:1.0 20:1.0 37:1.0 44:1.0 51:1.0 66:1.0 67:1.0 72:1.0 74:1.0 76:1.0 80:1.0 83:1.0 
-0.4834058902542679 4:1.0 7:1.0 17:1.0 27:1.0 35:1.0 40:1.0 48:1.0 63:1.0 67:1.0 73:1.0 74:1.0 76:1.0 80:1.0 99:1.0 
-0.48473966795294776 2:1.0 7:1.0 17:1.0 22:1.0 36:1.0 41:1.0 56:1.0 66:1.0 67:1.0 73:1.0 74:1.0 76:1.0 82:1.0 83:1.0 
-0.4850864127015377 2:1.0 6:1.0 18:1.0 20:1.0 37:1.0 40:1.0 50:1.0 63:1.0 70:1.0 73:1.0 74:1.0 76:1.0 82:1.0 
-0.485102776074065 2:1.0 9:1.0 14:1.0 25:1.0 38:1.0 42:1.0 52:1.0 65:1.0 68:1.0 73:1.0 74:1.0 76:1.0 80:1.0 83:1.0 
-0.48601592439847935 5:1.0 7:1.0 15:1.0 20:1.0 37:1.0 40:1.0 51:1.0 63:1.0 67:1.0 73:1.0 74:1.0 76:1.0 78:1.0 83:1.0 
-0.47493839147123507 1:1.0 6:1.0 14:1.0 24:1.0 38:1.0 42:1.0 55:1.0 64:1.0 67:1.0 72:1.0 74:1.0 76:1.0 80:1.0 83:1.0 
-0.49564298294954373 2:1.0 6:1.0 15:1.0 20:1.0 37:1.0 40:1.0 48:1.0 63:1.0 67:1.0 73:1.0 74:1.0 76:1.0 80:1.0 83:1.0 
-0.4844814283134806 1:1.0 6:1.0 18:1.0 27:1.0 35:1.0 42:1.0 56:1.0 66:1.0 70:1.0 73:1.0 74:1.0 76:1.0 79:1.0 103:1.0 
-0.4844221048523065 4:1.0 7:1.0 14:1.0 20:1.0 37:1.0 42:1.0 56:1.0 62:1.0 67:1.0 73:1.0 74:1.0 76:1.0 82:1.0 83:1.0 
-0.48477232375490575 1:1.0 6:1.0 17:1.0 20:1.0 37:1.0 42:1.0 48:1.0 65:1.0 68:1.0 72:1.0 74:1.0 76:1.0 80:1.0 84:1.0 
-0.483662842603758 3:1.0 6:1.0 18:1.0 22:1.0 36:1.0 40:1.0 48:1.0 63:1.0 67:1.0 73:1.0 74:1.0 76:1.0 81:1.0 83:1.0 
-0.48504231835889866 4:1.0 6:1.0 18:1.0 22:1.0 36:1.0 41:1.0 49:1.0 66:1.0 71:1.0 73:1.0 74:1.0 76:1.0 78:1.0 83:1.0 
-0.4841897891641547 2:1.0 6:1.0 18:1.0 20:1.0 37:1.0 42:1.0 50:1.0 64:1.0 67:1.0 73:1.0 74:1.0 76:1.0 81:1.0 83:1.0 
-0.48417021813563016 2:1.0 10:1.0 17:1.0 20:1.0 37:1.0 42:1.0 55:1.0 64:1.0 67:1.0 73:1.0 74:1.0 76:1.0 80:1.0 83:1.0 
-0.48442053945933006 3:1.0 6:1.0 18:1.0 31:1.0 35:1.0 40:1.0 56:1.0 63:1.0 67:1.0 73:1.0 74:1.0 76:1.0 79:1.0 103:1.0 
-0.48449015905987647 3:1.0 7:1.0 18:1.0 30:1.0 35:1.0 45:1.0 48:1.0 64:1.0 67:1.0 73:1.0 74:1.0 76:1.0 80:1.0 103:1.0 
-0.484927883265749 4:1.0 6:1.0 18:1.0 30:1.0 35:1.0 42:1.0 49:1.0 62:1.0 67:1.0 73:1.0 74:1.0 76:1.0 78:1.0 83:1.0 
-0.47668912015107545 2:1.0 6:1.0 18:1.0 19:1.0 39:1.0 40:1.0 48:1.0 63:1.0 67:1.0 73:1.0 74:1.0 76:1.0 80:1.0 83:1.0 
-0.4851182679844456 4:1.0 10:1.0 16:1.0 22:1.0 36:1.0 41:1.0 57:1.0 64:1.0 71:1.0 72:1.0 74:1.0 76:1.0 79:1.0 83:1.0 
-0.4851421680746587 5:1.0 6:1.0 15:1.0 25:1.0 38:1.0 44:1.0 52:1.0 64:1.0 67:1.0 72:1.0 74:1.0 76:1.0 79:1.0 83:1.0 
-0.4673000005510848 4:1.0 10:1.0 15:1.0 20:1.0 37:1.0 41:1.0 55:1.0 66:1.0 67:1.0 72:1.0 74:1.0 76:1.0 80:1.0 83:1.0 
-0.4759452250264506 2:1.0 6:1.0 17:1.0 20:1.0 37:1.0 42:1.0 50:1.0 65:1.0 67:1.0 72:1.0 74:1.0 76:1.0 78:1.0 83:1.0 
-0.4676414602661487 1:1.0 6:1.0 17:1.0 19:1.0 39:1.0 42:1.0 51:1.0 64:1.0 67:1.0 73:1.0 74:1.0 76:1.0 80:1.0 83:1.0 
-0.4752177773135016 1:1.0 6:1.0 14:1.0 20:1.0 37:1.0 42:1.0 53:1.0 64:1.0 67:1.0 73:1.0 74:1.0 76:1.0 82:1.0 83:1.0 
-0.4847002722827121 1:1.0 6:1.0 18:1.0 26:1.0 35:1.0 43:1.0 53:1.0 65:1.0 67:1.0 73:1.0 74:1.0 76:1.0 80:1.0 119:1.0 
-0.48377040986149406 1:1.0 6:1.0 18:1.0 31:1.0 35:1.0 42:1.0 50:1.0 62:1.0 67:1.0 73:1.0 74:1.0 76:1.0 78:1.0 83:1.0 
-0.5505596288016759 2:1.0 6:1.0 18:1.0 19:1.0 39:1.0 40:1.0 51:1.0 63:1.0 67:1.0 73:1.0 74:1.0 76:1.0 80:1.0 83:1.0 
-0.484418474122896 5:1.0 10:1.0 18:1.0 29:1.0 39:1.0 44:1.0 52:1.0 64:1.0 67:1.0 72:1.0 74:1.0 76:1.0 80:1.0 83:1.0 
-0.48493396601659294 2:1.0 6:1.0 15:1.0 19:1.0 39:1.0 42:1.0 55:1.0 62:1.0 67:1.0 72:1.0 74:1.0 76:1.0 78:1.0 119:1.0 
-0.48390712617213694 5:1.0 6:1.0 15:1.0 33:1.0 35:1.0 40:1.0 53:1.0 63:1.0 67:1.0 73:1.0 74:1.0 76:1.0 82:1.0 
-0.4849643204091303 2:1.0 6:1.0 18:1.0 22:1.0 36:1.0 43:1.0 57:1.0 64:1.0 67:1.0 73:1.0 74:1.0 76:1.0 81:1.0 83:1.0 
-0.4847264595023459 2:1.0 6:1.0 14:1.0 22:1.0 36:1.0 42:1.0 49:1.0 62:1.0 67:1.0 72:1.0 74:1.0 76:1.0 79:1.0 83:1.0 
-0.4846142654928613 4:1.0 7:1.0 17:1.0 19:1.0 39:1.0 40:1.0 51:1.0 63:1.0 67:1.0 73:1.0 74:1.0 76:1.0 82:1.0 88:1.0 
-0.486203239027988 2:1.0 6:1.0 18:1.0 22:1.0 36:1.0 40:1.0 51:1.0 61:1.0 67:1.0 72:1.0 74:1.0 76:1.0 80:1.0 83:1.0 
-0.5036966336694302 3:1.0 7:1.0 18:1.0 22:1.0 36:1.0 40:1.0 51:1.0 63:1.0 67:1.0 73:1.0 74:1.0 76:1.0 82:1.0 83:1.0 
-0.48889583206693293 4:1.0 6:1.0 18:1.0 20:1.0 37:1.0 40:1.0 47:1.0 63:1.0 67:1.0 73:1.0 74:1.0 76:1.0 80:1.0 83:1.0 
-0.4855284354283869 3:1.0 6:1.0 16:1.0 19:1.0 39:1.0 40:1.0 49:1.0 61:1.0 67:1.0 72:1.0 74:1.0 76:1.0 80:1.0 83:1.0 
-0.4487564423119138 1:1.0 6:1.0 17:1.0 22:1.0 36:1.0 42:1.0 55:1.0 62:1.0 67:1.0 72:1.0 74:1.0 76:1.0 80:1.0 83:1.0 
-0.4849466279083807 5:1.0 6:1.0 15:1.0 20:1.0 37:1.0 41:1.0 48:1.0 64:1.0 67:1.0 73:1.0 75:1.0 76:1.0 80:1.0 83:1.0 
-0.4849886250069795 3:1.0 10:1.0 17:1.0 20:1.0 37:1.0 40:1.0 48:1.0 63:1.0 67:1.0 73:1.0 74:1.0 77:1.0 80:1.0 83:1.0 
-0.48483505094171087 3:1.0 6:1.0 16:1.0 22:1.0 36:1.0 42:1.0 58:1.0 66:1.0 71:1.0 72:1.0 74:1.0 76:1.0 78:1.0 
-0.48461729480776394 2:1.0 6:1.0 16:1.0 22:1.0 36:1.0 42:1.0 54:1.0 65:1.0 71:1.0 73:1.0 74:1.0 76:1.0 80:1.0 83:1.0 
-0.4746034285199219 1:1.0 6:1.0 17:1.0 19:1.0 39:1.0 42:1.0 52:1.0 64:1.0 67:1.0 72:1.0 74:1.0 76:1.0 80:1.0 83:1.0 
-0.4843458056382611 3:1.0 6:1.0 14:1.0 19:1.0 39:1.0 42:1.0 50:1.0 62:1.0 71:1.0 72:1.0 74:1.0 76:1.0 80:1.0 83:1.0 
-0.4837182472040209 1:1.0 6:1.0 18:1.0 21:1.0 35:1.0 42:1.0 57:1.0 62:1.0 67:1.0 73:1.0 74:1.0 76:1.0 82:1.0 83:1.0 
-0.47518438631538523 4:1.0 6:1.0 15:1.0 22:1.0 36:1.0 42:1.0 54:1.0 64:1.0 67:1.0 73:1.0 74:1.0 76:1.0 80:1.0 83:1.0 
-0.48495369286469586 1:1.0 10:1.0 16:1.0 20:1.0 37:1.0 40:1.0 56:1.0 63:1.0 67:1.0 73:1.0 74:1.0 76:1.0 80:1.0 83:1.0 
-0.48443039308349234 5:1.0 8:1.0 17:1.0 19:1.0 39:1.0 43:1.0 50:1.0 64:1.0 67:1.0 72:1.0 74:1.0 76:1.0 78:1.0 83:1.0 
-0.48471818797166555 4:1.0 6:1.0 14:1.0 22:1.0 36:1.0 41:1.0 54:1.0 64:1.0 67:1.0 72:1.0 74:1.0 76:1.0 78:1.0 83:1.0 
-0.44155782485777434 1:1.0 6:1.0 14:1.0 20:1.0 37:1.0 42:1.0 50:1.0 62:1.0 67:1.0 72:1.0 74:1.0 76:1.0 78:1.0 83:1.0 
-0.48425021274117425 5:1.0 8:1.0 15:1.0 20:1.0 37:1.0 41:1.0 51:1.0 64:1.0 67:1.0 73:1.0 74:1.0 76:1.0 82:1.0 83:1.0 
-0.4852872896860548 2:1.0 11:1.0 18:1.0 22:1.0 36:1.0 40:1.0 59:1.0 63:1.0 67:1.0 73:1.0 74:1.0 76:1.0 81:1.0 83:1.0 
-0.48513841387966344 1:1.0 10:1.0 15:1.0 20:1.0 37:1.0 43:1.0 59:1.0 64:1.0 67:1.0 73:1.0 74:1.0 76:1.0 82:1.0 83:1.0 
-0.45198518586237135 5:1.0 6:1.0 17:1.0 20:1.0 37:1.0 40:1.0 48:1.0 63:1.0 67:1.0 73:1.0 74:1.0 76:1.0 80:1.0 83:1.0 
-0.47623837083588416 5:1.0 6:1.0 18:1.0 31:1.0 35:1.0 41:1.0 48:1.0 64:1.0 67:1.0 73:1.0 74:1.0 76:1.0 80:1.0 83:1.0 
-0.47480819123692175 5:1.0 6:1.0 16:1.0 22:1.0 36:1.0 41:1.0 49:1.0 64:1.0 67:1.0 72:1.0 74:1.0 76:1.0 78:1.0 83:1.0 
-0.48410201426790955 2:1.0 6:1.0 18:1.0 22:1.0 36:1.0 40:1.0 57:1.0 63:1.0 71:1.0 73:1.0 74:1.0 76:1.0 80:1.0 83:1.0 
-0.474693131971832 1:1.0 6:1.0 14:1.0 20:1.0 37:1.0 42:1.0 52:1.0 64:1.0 67:1.0 73:1.0 74:1.0 76:1.0 79:1.0 83:1.0 
-0.45789476342950447 2:1.0 6:1.0 16:1.0 19:1.0 39:1.0 42:1.0 52:1.0 64:1.0 67:1.0 72:1.0 74:1.0 76:1.0 80:1.0 83:1.0 
-0.4666928524902556 1:1.0 6:1.0 14:1.0 21:1.0 35:1.0 42:1.0 49:1.0 62:1.0 67:1.0 73:1.0 74:1.0 76:1.0 78:1.0 83:1.0 
-0.4583407116414185 1:1.0 6:1.0 17:1.0 20:1.0 37:1.0 42:1.0 50:1.0 65:1.0 67:1.0 72:1.0 74:1.0 76:1.0 78:1.0 83:1.0 
-0.4837201363645974 3:1.0 6:1.0 16:1.0 22:1.0 36:1.0 40:1.0 57:1.0 63:1.0 67:1.0 73:1.0 74:1.0 76:1.0 78:1.0 83:1.0 
-0.48443360184339324 5:1.0 7:1.0 18:1.0 22:1.0 36:1.0 44:1.0 51:1.0 66:1.0 68:1.0 72:1.0 74:1.0 76:1.0 82:1.0 93:1.0 
-0.48432692825631374 1:1.0 6:1.0 18:1.0 31:1.0 35:1.0 42:1.0 56:1.0 62:1.0 67:1.0 73:1.0 74:1.0 76:1.0 79:1.0 83:1.0 
-0.484724569881998 2:1.0 6:1.0 15:1.0 22:1.0 36:1.0 42:1.0 49:1.0 66:1.0 71:1.0 72:1.0 74:1.0 76:1.0 78:1.0 83:1.0 
-0.48444447418574405 2:1.0 6:1.0 15:1.0 27:1.0 35:1.0 44:1.0 55:1.0 64:1.0 67:1.0 72:1.0 74:1.0 76:1.0 79:1.0 83:1.0 
-0.4848142800635598 2:1.0 11:1.0 17:1.0 23:1.0 39:1.0 42:1.0 52:1.0 64:1.0 68:1.0 73:1.0 75:1.0 76:1.0 82:1.0 90:1.0 
-0.48493709590125544 3:1.0 7:1.0 15:1.0 20:1.0 37:1.0 40:1.0 48:1.0 63:1.0 69:1.0 73:1.0 74:1.0 76:1.0 82:1.0 83:1.0 
-0.48468744353517973 3:1.0 17:1.0 25:1.0 38:1.0 42:1.0 62:1.0 67:1.0 72:1.0 74:1.0 76:1.0 80:1.0 83:1.0 
-0.47546979923180077 5:1.0 6:1.0 18:1.0 22:1.0 36:1.0 44:1.0 50:1.0 64:1.0 67:1.0 72:1.0 74:1.0 76:1.0 80:1.0 83:1.0 
-0.484482110763164 2:1.0 6:1.0 18:1.0 33:1.0 35:1.0 40:1.0 56:1.0 63:1.0 67:1.0 73:1.0 74:1.0 76:1.0 78:1.0 103:1.0 
-0.4864040499863027 4:1.0 6:1.0 18:1.0 22:1.0 36:1.0 40:1.0 50:1.0 63:1.0 67:1.0 73:1.0 75:1.0 76:1.0 82:1.0 83:1.0 
-0.4843077876907983 1:1.0 6:1.0 18:1.0 19:1.0 39:1.0 42:1.0 47:1.0 64:1.0 71:1.0 73:1.0 74:1.0 76:1.0 80:1.0 
-0.48482945189997584 2:1.0 6:1.0 14:1.0 19:1.0 39:1.0 42:1.0 52:1.0 64:1.0 67:1.0 72:1.0 75:1.0 76:1.0 80:1.0 83:1.0 
-32.0 2:1.0 6:1.0 14:1.0 19:1.0 39:1.0 40:1.0 50:1.0 63:1.0 67:1.0 73:1.0 74:1.0 76:1.0 82:1.0 83:1.0 
-0.48438836595269097 3:1.0 11:1.0 17:1.0 20:1.0 37:1.0 41:1.0 51:1.0 64:1.0 71:1.0 72:1.0 74:1.0 76:1.0 80:1.0 83:1.0 
-0.48512444057164117 5:1.0 6:1.0 18:1.0 21:1.0 35:1.0 41:1.0 57:1.0 64:1.0 67:1.0 73:1.0 74:1.0 76:1.0 82:1.0 83:1.0 
-0.4854291465620286 5:1.0 6:1.0 16:1.0 22:1.0 36:1.0 40:1.0 52:1.0 63:1.0 67:1.0 73:1.0 75:1.0 76:1.0 80:1.0 83:1.0 
-0.4843296787811822 5:1.0 7:1.0 14:1.0 27:1.0 35:1.0 40:1.0 50:1.0 63:1.0 67:1.0 73:1.0 74:1.0 76:1.0 82:1.0 83:1.0 
-0.48495145932457906 3:1.0 6:1.0 16:1.0 22:1.0 36:1.0 43:1.0 51:1.0 62:1.0 67:1.0 73:1.0 74:1.0 76:1.0 80:1.0 83:1.0 
-0.4851380868985917 3:1.0 9:1.0 14:1.0 20:1.0 37:1.0 41:1.0 47:1.0 66:1.0 69:1.0 72:1.0 74:1.0 76:1.0 78:1.0 83:1.0 
-0.48420811324602964 3:1.0 6:1.0 17:1.0 19:1.0 39:1.0 42:1.0 55:1.0 64:1.0 71:1.0 73:1.0 74:1.0 76:1.0 80:1.0 83:1.0 
-0.4841959093464408 4:1.0 6:1.0 15:1.0 20:1.0 37:1.0 41:1.0 49:1.0 66:1.0 71:1.0 72:1.0 74:1.0 76:1.0 80:1.0 83:1.0 
-0.48515536110710694 3:1.0 6:1.0 18:1.0 19:1.0 39:1.0 40:1.0 51:1.0 61:1.0 67:1.0 72:1.0 74:1.0 76:1.0 82:1.0 88:1.0 
-0.47638409572220786 1:1.0 16:1.0 25:1.0 38:1.0 42:1.0 62:1.0 67:1.0 73:1.0 74:1.0 76:1.0 80:1.0 83:1.0 
-0.47418461206004714 2:1.0 6:1.0 15:1.0 22:1.0 36:1.0 41:1.0 48:1.0 64:1.0 67:1.0 73:1.0 74:1.0 76:1.0 80:1.0 83:1.0 
-0.4844421165078344 1:1.0 6:1.0 16:1.0 22:1.0 36:1.0 42:1.0 49:1.0 62:1.0 67:1.0 72:1.0 75:1.0 76:1.0 78:1.0 83:1.0 
-0.48508101154601324 2:1.0 7:1.0 17:1.0 19:1.0 39:1.0 42:1.0 47:1.0 64:1.0 67:1.0 73:1.0 74:1.0 76:1.0 81:1.0 83:1.0 
-0.5422959514583127 2:1.0 6:1.0 17:1.0 19:1.0 39:1.0 40:1.0 52:1.0 63:1.0 67:1.0 73:1.0 74:1.0 76:1.0 80:1.0 83:1.0 
-0.4847469661049284 4:1.0 11:1.0 18:1.0 19:1.0 39:1.0 41:1.0 59:1.0 64:1.0 67:1.0 72:1.0 74:1.0 76:1.0 80:1.0 83:1.0 
-32.0 2:1.0 6:1.0 14:1.0 22:1.0 36:1.0 40:1.0 48:1.0 63:1.0 67:1.0 73:1.0 74:1.0 76:1.0 80:1.0 83:1.0 
-0.4849620944354477 2:1.0 6:1.0 17:1.0 19:1.0 39:1.0 42:1.0 47:1.0 62:1.0 67:1.0 73:1.0 74:1.0 76:1.0 80:1.0 83:1.0 
-0.4760694996204634 1:1.0 7:1.0 18:1.0 20:1.0 37:1.0 42:1.0 49:1.0 62:1.0 67:1.0 73:1.0 74:1.0 76:1.0 78:1.0 83:1.0 
-0.4847681884492774 5:1.0 18:1.0 22:1.0 36:1.0 40:1.0 61:1.0 67:1.0 72:1.0 74:1.0 76:1.0 78:1.0 83:1.0 
-0.4845889822858622 3:1.0 11:1.0 18:1.0 29:1.0 39:1.0 40:1.0 59:1.0 63:1.0 71:1.0 73:1.0 74:1.0 76:1.0 80:1.0 83:1.0 
-0.48558335579991596 4:1.0 6:1.0 16:1.0 20:1.0 37:1.0 40:1.0 54:1.0 63:1.0 71:1.0 73:1.0 74:1.0 76:1.0 80:1.0 83:1.0 
-0.45943713571202405 3:1.0 6:1.0 16:1.0 22:1.0 36:1.0 40:1.0 48:1.0 63:1.0 67:1.0 73:1.0 74:1.0 76:1.0 82:1.0 83:1.0 
-0.46664879296312517 3:1.0 6:1.0 16:1.0 21:1.0 35:1.0 40:1.0 54:1.0 63:1.0 67:1.0 73:1.0 74:1.0 76:1.0 80:1.0 83:1.0 
-0.48597804675548295 2:1.0 6:1.0 16:1.0 19:1.0 39:1.0 40:1.0 51:1.0 63:1.0 67:1.0 73:1.0 74:1.0 76:1.0 80:1.0 107:1.0 
-0.48347331507800756 3:1.0 6:1.0 15:1.0 22:1.0 36:1.0 41:1.0 55:1.0 64:1.0 67:1.0 72:1.0 74:1.0 76:1.0 80:1.0 83:1.0 
-0.4847531518109027 4:1.0 6:1.0 16:1.0 21:1.0 35:1.0 44:1.0 49:1.0 64:1.0 67:1.0 72:1.0 74:1.0 76:1.0 78:1.0 119:1.0 
-0.4750256741387899 5:1.0 6:1.0 17:1.0 22:1.0 36:1.0 42:1.0 55:1.0 64:1.0 67:1.0 72:1.0 74:1.0 76:1.0 80:1.0 83:1.0 
-0.4846751162404129 4:1.0 6:1.0 14:1.0 20:1.0 37:1.0 41:1.0 55:1.0 64:1.0 68:1.0 72:1.0 74:1.0 76:1.0 80:1.0 83:1.0 
-0.483781398133989 4:1.0 6:1.0 16:1.0 33:1.0 35:1.0 40:1.0 48:1.0 63:1.0 67:1.0 73:1.0 74:1.0 76:1.0 80:1.0 83:1.0 
-0.48452200031422415 1:1.0 9:1.0 15:1.0 22:1.0 36:1.0 42:1.0 49:1.0 64:1.0 67:1.0 72:1.0 74:1.0 76:1.0 80:1.0 83:1.0 
-0.46769174204218034 1:1.0 15:1.0 20:1.0 37:1.0 42:1.0 65:1.0 67:1.0 72:1.0 74:1.0 76:1.0 78:1.0 83:1.0 
-0.48509876179427736 4:1.0 6:1.0 17:1.0 19:1.0 39:1.0 43:1.0 47:1.0 64:1.0 67:1.0 73:1.0 74:1.0 76:1.0 80:1.0 83:1.0 
-0.4841273880296321 3:1.0 6:1.0 17:1.0 24:1.0 38:1.0 41:1.0 50:1.0 66:1.0 67:1.0 72:1.0 74:1.0 76:1.0 80:1.0 83:1.0 
-0.4847311156114249 4:1.0 6:1.0 14:1.0 22:1.0 36:1.0 41:1.0 52:1.0 64:1.0 67:1.0 72:1.0 74:1.0 76:1.0 81:1.0 83:1.0 
-0.46687620354752174 4:1.0 6:1.0 14:1.0 22:1.0 36:1.0 42:1.0 55:1.0 64:1.0 67:1.0 72:1.0 74:1.0 76:1.0 80:1.0 83:1.0 
-0.47626401878398206 2:1.0 10:1.0 16:1.0 25:1.0 38:1.0 42:1.0 59:1.0 64:1.0 67:1.0 73:1.0 74:1.0 76:1.0 80:1.0 83:1.0 
-0.5153368968255274 4:1.0 6:1.0 16:1.0 22:1.0 36:1.0 40:1.0 51:1.0 63:1.0 67:1.0 73:1.0 74:1.0 76:1.0 81:1.0 83:1.0 
-0.48419321120495173 4:1.0 6:1.0 17:1.0 23:1.0 39:1.0 41:1.0 55:1.0 64:1.0 67:1.0 73:1.0 74:1.0 76:1.0 80:1.0 83:1.0 
-0.4844249809250128 5:1.0 7:1.0 18:1.0 31:1.0 35:1.0 41:1.0 50:1.0 64:1.0 67:1.0 72:1.0 74:1.0 76:1.0 82:1.0 83:1.0 
-1.0082543782410518 4:1.0 7:1.0 14:1.0 19:1.0 39:1.0 40:1.0 56:1.0 63:1.0 67:1.0 73:1.0 74:1.0 76:1.0 82:1.0 83:1.0 
-0.48442247344548944 2:1.0 6:1.0 16:1.0 26:1.0 35:1.0 40:1.0 48:1.0 63:1.0 67:1.0 73:1.0 74:1.0 76:1.0 80:1.0 83:1.0 
-0.5080707786305693 4:1.0 6:1.0 15:1.0 22:1.0 36:1.0 40:1.0 51:1.0 63:1.0 67:1.0 73:1.0 74:1.0 76:1.0 82:1.0 83:1.0 
-0.48465573969117093 5:1.0 7:1.0 15:1.0 22:1.0 36:1.0 40:1.0 50:1.0 63:1.0 68:1.0 73:1.0 74:1.0 76:1.0 82:1.0 93:1.0 
-0.48434460251029166 5:1.0 6:1.0 17:1.0 22:1.0 36:1.0 41:1.0 51:1.0 66:1.0 67:1.0 72:1.0 74:1.0 76:1.0 79:1.0 83:1.0 
-0.4844502769556719 1:1.0 6:1.0 16:1.0 20:1.0 37:1.0 42:1.0 50:1.0 62:1.0 68:1.0 73:1.0 74:1.0 76:1.0 80:1.0 83:1.0 
-0.4743720709464824 1:1.0 6:1.0 14:1.0 19:1.0 39:1.0 42:1.0 55:1.0 64:1.0 67:1.0 72:1.0 74:1.0 76:1.0 80:1.0 83:1.0 
-0.5429795240321519 5:1.0 6:1.0 15:1.0 22:1.0 36:1.0 40:1.0 50:1.0 63:1.0 67:1.0 73:1.0 74:1.0 76:1.0 80:1.0 83:1.0 
-0.48507680776548817 2:1.0 11:1.0 18:1.0 19:1.0 39:1.0 42:1.0 48:1.0 64:1.0 67:1.0 73:1.0 74:1.0 76:1.0 80:1.0 83:1.0 
-0.4605472761037781 2:1.0 6:1.0 17:1.0 22:1.0 36:1.0 40:1.0 50:1.0 63:1.0 67:1.0 73:1.0 74:1.0 76:1.0 80:1.0 83:1.0 
-0.45847934051060135 1:1.0 6:1.0 15:1.0 20:1.0 37:1.0 42:1.0 58:1.0 62:1.0 67:1.0 72:1.0 74:1.0 76:1.0 78:1.0 83:1.0 
-0.48439239333293244 3:1.0 11:1.0 14:1.0 22:1.0 36:1.0 42:1.0 49:1.0 62:1.0 67:1.0 72:1.0 74:1.0 76:1.0 80:1.0 83:1.0 
-0.4850462644148296 2:1.0 6:1.0 17:1.0 25:1.0 38:1.0 42:1.0 51:1.0 62:1.0 67:1.0 73:1.0 74:1.0 76:1.0 82:1.0 83:1.0 
-0.48444236432771226 1:1.0 6:1.0 14:1.0 19:1.0 39:1.0 40:1.0 49:1.0 63:1.0 67:1.0 73:1.0 74:1.0 76:1.0 78:1.0 83:1.0 
-0.48512620711267745 5:1.0 6:1.0 17:1.0 27:1.0 35:1.0 44:1.0 54:1.0 66:1.0 71:1.0 72:1.0 74:1.0 76:1.0 80:1.0 83:1.0 
-0.4810851391210707 3:1.0 14:1.0 22:1.0 36:1.0 40:1.0 63:1.0 67:1.0 73:1.0 74:1.0 76:1.0 80:1.0 83:1.0 
-0.4844287448631286 1:1.0 10:1.0 18:1.0 28:1.0 35:1.0 42:1.0 49:1.0 62:1.0 71:1.0 73:1.0 74:1.0 76:1.0 78:1.0 83:1.0 
-0.4851149432849187 5:1.0 6:1.0 15:1.0 22:1.0 36:1.0 42:1.0 52:1.0 66:1.0 67:1.0 72:1.0 74:1.0 77:1.0 80:1.0 83:1.0 
-0.48346911286251887 3:1.0 6:1.0 17:1.0 20:1.0 37:1.0 42:1.0 49:1.0 64:1.0 67:1.0 73:1.0 74:1.0 76:1.0 80:1.0 83:1.0 
-0.5055700020928942 5:1.0 16:1.0 19:1.0 39:1.0 40:1.0 63:1.0 67:1.0 73:1.0 74:1.0 76:1.0 78:1.0 83:1.0 
-0.4846910350516429 3:1.0 6:1.0 17:1.0 20:1.0 37:1.0 41:1.0 47:1.0 64:1.0 67:1.0 72:1.0 74:1.0 76:1.0 80:1.0 100:1.0 
-0.485074094217204 1:1.0 6:1.0 17:1.0 22:1.0 36:1.0 42:1.0 50:1.0 64:1.0 67:1.0 73:1.0 74:1.0 77:1.0 82:1.0 83:1.0 
-0.4841961830802267 3:1.0 10:1.0 14:1.0 22:1.0 36:1.0 42:1.0 49:1.0 62:1.0 67:1.0 73:1.0 74:1.0 76:1.0 80:1.0 83:1.0 
-0.484504215911538 1:1.0 6:1.0 15:1.0 20:1.0 37:1.0 40:1.0 55:1.0 61:1.0 69:1.0 72:1.0 74:1.0 76:1.0 81:1.0 83:1.0 
-0.4511852834900945 2:1.0 6:1.0 17:1.0 20:1.0 37:1.0 40:1.0 48:1.0 63:1.0 67:1.0 73:1.0 74:1.0 76:1.0 80:1.0 83:1.0 
-0.4851194446122384 3:1.0 7:1.0 17:1.0 20:1.0 37:1.0 41:1.0 56:1.0 64:1.0 67:1.0 73:1.0 74:1.0 76:1.0 80:1.0 83:1.0 
-0.4837599566375706 2:1.0 6:1.0 17:1.0 19:1.0 39:1.0 42:1.0 52:1.0 64:1.0 67:1.0 72:1.0 74:1.0 76:1.0 82:1.0 83:1.0 
-0.48514638152605416 3:1.0 6:1.0 17:1.0 32:1.0 39:1.0 41:1.0 52:1.0 66:1.0 67:1.0 72:1.0 74:1.0 76:1.0 82:1.0 83:1.0 
-0.47498927558065224 1:1.0 18:1.0 20:1.0 37:1.0 42:1.0 62:1.0 67:1.0 72:1.0 74:1.0 77:1.0 78:1.0 83:1.0 
-0.46622075712454364 2:1.0 6:1.0 17:1.0 22:1.0 36:1.0 42:1.0 48:1.0 62:1.0 67:1.0 73:1.0 74:1.0 76:1.0 80:1.0 83:1.0 
-0.48429247200402725 2:1.0 6:1.0 18:1.0 20:1.0 37:1.0 42:1.0 49:1.0 62:1.0 67:1.0 73:1.0 74:1.0 77:1.0 78:1.0 83:1.0 
-0.48358338076559426 2:1.0 6:1.0 14:1.0 22:1.0 36:1.0 42:1.0 49:1.0 64:1.0 67:1.0 73:1.0 74:1.0 76:1.0 80:1.0 83:1.0 
-0.4851287363917035 3:1.0 6:1.0 15:1.0 20:1.0 37:1.0 43:1.0 54:1.0 62:1.0 67:1.0 73:1.0 74:1.0 76:1.0 80:1.0 83:1.0 
-0.48448479118738114 5:1.0 7:1.0 17:1.0 27:1.0 35:1.0 40:1.0 48:1.0 63:1.0 67:1.0 73:1.0 74:1.0 76:1.0 78:1.0 83:1.0 
-0.4760513118464036 1:1.0 6:1.0 15:1.0 20:1.0 37:1.0 42:1.0 55:1.0 62:1.0 68:1.0 73:1.0 74:1.0 76:1.0 78:1.0 83:1.0 
-0.4843725114328135 1:1.0 6:1.0 18:1.0 33:1.0 35:1.0 42:1.0 53:1.0 64:1.0 67:1.0 73:1.0 74:1.0 76:1.0 78:1.0 103:1.0 
-0.47604492682638866 1:1.0 6:1.0 16:1.0 22:1.0 36:1.0 42:1.0 53:1.0 64:1.0 67:1.0 73:1.0 74:1.0 76:1.0 82:1.0 83:1.0 
-0.4686993331692773 5:1.0 14:1.0 19:1.0 39:1.0 40:1.0 63:1.0 67:1.0 73:1.0 74:1.0 76:1.0 78:1.0 83:1.0 
-0.46604454390696115 1:1.0 6:1.0 16:1.0 22:1.0 36:1.0 42:1.0 50:1.0 62:1.0 67:1.0 72:1.0 74:1.0 76:1.0 78:1.0 83:1.0 
-0.4800821038381821 4:1.0 6:1.0 17:1.0 22:1.0 36:1.0 40:1.0 48:1.0 63:1.0 70:1.0 73:1.0 74:1.0 76:1.0 80:1.0 83:1.0 
-0.484448740830966 4:1.0 6:1.0 16:1.0 26:1.0 35:1.0 40:1.0 54:1.0 65:1.0 68:1.0 72:1.0 74:1.0 76:1.0 81:1.0 94:1.0 
-0.4849851199186624 1:1.0 6:1.0 15:1.0 25:1.0 38:1.0 42:1.0 55:1.0 62:1.0 67:1.0 72:1.0 74:1.0 76:1.0 82:1.0 83:1.0 
-0.4843777441057068 1:1.0 10:1.0 18:1.0 31:1.0 35:1.0 42:1.0 49:1.0 64:1.0 67:1.0 73:1.0 74:1.0 76:1.0 80:1.0 83:1.0 
-0.4757038557428967 1:1.0 6:1.0 14:1.0 20:1.0 37:1.0 42:1.0 57:1.0 64:1.0 67:1.0 73:1.0 74:1.0 76:1.0 82:1.0 83:1.0 
-0.4844762595332641 2:1.0 11:1.0 16:1.0 22:1.0 36:1.0 40:1.0 59:1.0 63:1.0 67:1.0 73:1.0 74:1.0 76:1.0 80:1.0 83:1.0 
-0.4844764421674619 3:1.0 10:1.0 17:1.0 19:1.0 39:1.0 42:1.0 52:1.0 64:1.0 67:1.0 72:1.0 74:1.0 76:1.0 80:1.0 83:1.0 
-0.4847198149791448 3:1.0 10:1.0 17:1.0 29:1.0 39:1.0 44:1.0 52:1.0 64:1.0 67:1.0 72:1.0 74:1.0 76:1.0 80:1.0 83:1.0 
-1.0103268066713866 2:1.0 6:1.0 16:1.0 22:1.0 36:1.0 40:1.0 54:1.0 63:1.0 67:1.0 73:1.0 74:1.0 76:1.0 80:1.0 83:1.0 
-0.4847890364203893 4:1.0 6:1.0 15:1.0 22:1.0 36:1.0 42:1.0 57:1.0 64:1.0 69:1.0 73:1.0 74:1.0 76:1.0 80:1.0 83:1.0 
-0.48453989530268 1:1.0 6:1.0 16:1.0 22:1.0 36:1.0 42:1.0 52:1.0 66:1.0 67:1.0 72:1.0 74:1.0 76:1.0 82:1.0 83:1.0 
-0.4851410726694328 2:1.0 10:1.0 16:1.0 24:1.0 38:1.0 40:1.0 59:1.0 63:1.0 67:1.0 73:1.0 74:1.0 77:1.0 80:1.0 85:1.0 
-0.48495850456094525 4:1.0 6:1.0 15:1.0 22:1.0 36:1.0 44:1.0 50:1.0 66:1.0 69:1.0 72:1.0 74:1.0 76:1.0 80:1.0 83:1.0 
-0.4585870986879446 1:1.0 6:1.0 15:1.0 20:1.0 37:1.0 42:1.0 50:1.0 65:1.0 67:1.0 72:1.0 74:1.0 76:1.0 78:1.0 83:1.0 
-0.4843998880188085 3:1.0 6:1.0 14:1.0 19:1.0 39:1.0 42:1.0 50:1.0 64:1.0 67:1.0 73:1.0 74:1.0 76:1.0 81:1.0 83:1.0 
-0.48457899964614387 5:1.0 10:1.0 14:1.0 22:1.0 36:1.0 40:1.0 51:1.0 63:1.0 69:1.0 73:1.0 74:1.0 76:1.0 82:1.0 83:1.0 
-0.4854112530078552 4:1.0 7:1.0 16:1.0 19:1.0 39:1.0 40:1.0 52:1.0 63:1.0 67:1.0 73:1.0 74:1.0 76:1.0 80:1.0 83:1.0 
-0.48435417085969856 2:1.0 7:1.0 18:1.0 20:1.0 37:1.0 42:1.0 48:1.0 64:1.0 67:1.0 73:1.0 74:1.0 76:1.0 81:1.0 83:1.0 
-0.48549394776246657 3:1.0 6:1.0 18:1.0 22:1.0 36:1.0 40:1.0 52:1.0 63:1.0 67:1.0 73:1.0 74:1.0 77:1.0 82:1.0 83:1.0 
-0.476422875357166 1:1.0 6:1.0 15:1.0 20:1.0 37:1.0 41:1.0 49:1.0 64:1.0 67:1.0 73:1.0 74:1.0 76:1.0 78:1.0 83:1.0 
-0.48467752768815564 5:1.0 16:1.0 21:1.0 35:1.0 42:1.0 66:1.0 67:1.0 73:1.0 74:1.0 76:1.0 80:1.0 83:1.0 
-0.4837198024215445 1:1.0 18:1.0 31:1.0 35:1.0 42:1.0 62:1.0 67:1.0 73:1.0 74:1.0 76:1.0 80:1.0 83:1.0 
-0.48759846350619723 3:1.0 6:1.0 17:1.0 20:1.0 37:1.0 40:1.0 48:1.0 63:1.0 67:1.0 73:1.0 74:1.0 76:1.0 80:1.0 83:1.0 
-0.48450418759322983 5:1.0 7:1.0 18:1.0 22:1.0 36:1.0 44:1.0 49:1.0 65:1.0 67:1.0 72:1.0 75:1.0 76:1.0 78:1.0 83:1.0 
-0.48405163668862555 1:1.0 6:1.0 17:1.0 21:1.0 35:1.0 42:1.0 55:1.0 62:1.0 71:1.0 72:1.0 74:1.0 76:1.0 80:1.0 83:1.0 
-0.4756224214996731 2:1.0 6:1.0 18:1.0 19:1.0 39:1.0 42:1.0 55:1.0 64:1.0 67:1.0 73:1.0 74:1.0 76:1.0 81:1.0 83:1.0 
-0.48448920240397014 5:1.0 15:1.0 23:1.0 39:1.0 45:1.0 66:1.0 68:1.0 72:1.0 74:1.0 76:1.0 80:1.0 102:1.0 
-1.0099957887389437 5:1.0 6:1.0 15:1.0 22:1.0 36:1.0 40:1.0 48:1.0 63:1.0 67:1.0 73:1.0 74:1.0 76:1.0 80:1.0 83:1.0 
-0.48434858472875003 4:1.0 10:1.0 14:1.0 19:1.0 39:1.0 41:1.0 52:1.0 66:1.0 67:1.0 73:1.0 74:1.0 76:1.0 82:1.0 83:1.0 
-0.47623059319595684 4:1.0 6:1.0 18:1.0 22:1.0 36:1.0 43:1.0 54:1.0 66:1.0 71:1.0 72:1.0 74:1.0 76:1.0 80:1.0 83:1.0 
-0.4670503487617915 4:1.0 6:1.0 14:1.0 22:1.0 36:1.0 42:1.0 50:1.0 64:1.0 67:1.0 72:1.0 74:1.0 76:1.0 80:1.0 83:1.0 
-0.48490919139935057 4:1.0 6:1.0 16:1.0 22:1.0 36:1.0 41:1.0 54:1.0 66:1.0 67:1.0 72:1.0 74:1.0 76:1.0 82:1.0 83:1.0 
-0.4839984788864945 1:1.0 6:1.0 14:1.0 31:1.0 35:1.0 42:1.0 49:1.0 62:1.0 67:1.0 72:1.0 74:1.0 76:1.0 78:1.0 83:1.0 
-0.48451697936817095 2:1.0 10:1.0 18:1.0 19:1.0 39:1.0 42:1.0 59:1.0 62:1.0 71:1.0 73:1.0 74:1.0 76:1.0 82:1.0 83:1.0 
-0.4680256532828287 2:1.0 6:1.0 17:1.0 20:1.0 37:1.0 40:1.0 54:1.0 63:1.0 67:1.0 73:1.0 74:1.0 76:1.0 80:1.0 83:1.0 
-0.4776847197857647 5:1.0 6:1.0 18:1.0 22:1.0 36:1.0 40:1.0 51:1.0 63:1.0 67:1.0 73:1.0 74:1.0 76:1.0 78:1.0 83:1.0 
-0.48422077960154286 1:1.0 6:1.0 17:1.0 22:1.0 36:1.0 42:1.0 54:1.0 65:1.0 67:1.0 73:1.0 74:1.0 76:1.0 80:1.0 103:1.0 
-0.4849745519443414 2:1.0 6:1.0 14:1.0 20:1.0 37:1.0 40:1.0 49:1.0 61:1.0 69:1.0 72:1.0 74:1.0 76:1.0 80:1.0 83:1.0 
-0.45010008045667405 2:1.0 6:1.0 15:1.0 22:1.0 36:1.0 40:1.0 54:1.0 63:1.0 67:1.0 73:1.0 74:1.0 76:1.0 80:1.0 83:1.0 
-0.48471692368753583 2:1.0 6:1.0 15:1.0 31:1.0 35:1.0 40:1.0 48:1.0 61:1.0 70:1.0 72:1.0 74:1.0 76:1.0 82:1.0 114:1.0 
-0.5706261512142388 4:1.0 6:1.0 15:1.0 19:1.0 39:1.0 40:1.0 50:1.0 63:1.0 67:1.0 73:1.0 74:1.0 76:1.0 82:1.0 83:1.0 
-0.484933345865092 4:1.0 6:1.0 16:1.0 22:1.0 36:1.0 41:1.0 54:1.0 62:1.0 71:1.0 72:1.0 74:1.0 76:1.0 80:1.0 83:1.0 
-0.4757804471137189 1:1.0 6:1.0 18:1.0 20:1.0 37:1.0 42:1.0 57:1.0 62:1.0 71:1.0 73:1.0 74:1.0 76:1.0 80:1.0 83:1.0 
-0.4888020598220108 2:1.0 6:1.0 18:1.0 32:1.0 39:1.0 42:1.0 52:1.0 64:1.0 67:1.0 73:1.0 74:1.0 76:1.0 80:1.0 
-0.48497083283091125 3:1.0 8:1.0 15:1.0 20:1.0 37:1.0 40:1.0 52:1.0 63:1.0 67:1.0 73:1.0 74:1.0 76:1.0 78:1.0 83:1.0 
-0.4752674383336136 1:1.0 16:1.0 24:1.0 38:1.0 42:1.0 62:1.0 67:1.0 73:1.0 74:1.0 76:1.0 80:1.0 83:1.0 
-0.5397460134855221 5:1.0 6:1.0 18:1.0 19:1.0 39:1.0 40:1.0 54:1.0 63:1.0 67:1.0 73:1.0 74:1.0 76:1.0 80:1.0 83:1.0 
-0.48445449426488424 1:1.0 6:1.0 16:1.0 21:1.0 35:1.0 42:1.0 53:1.0 62:1.0 67:1.0 73:1.0 74:1.0 76:1.0 78:1.0 83:1.0 
-0.48443569781959506 3:1.0 6:1.0 14:1.0 22:1.0 36:1.0 41:1.0 56:1.0 64:1.0 67:1.0 73:1.0 74:1.0 76:1.0 82:1.0 83:1.0 
-0.4840166753651959 1:1.0 6:1.0 14:1.0 22:1.0 36:1.0 42:1.0 53:1.0 64:1.0 67:1.0 73:1.0 74:1.0 76:1.0 78:1.0 83:1.0 
-0.48420406455544546 1:1.0 6:1.0 14:1.0 27:1.0 35:1.0 42:1.0 54:1.0 62:1.0 67:1.0 73:1.0 74:1.0 76:1.0 80:1.0 83:1.0 
-0.506122275381173 4:1.0 6:1.0 16:1.0 20:1.0 37:1.0 40:1.0 48:1.0 63:1.0 67:1.0 73:1.0 74:1.0 76:1.0 80:1.0 83:1.0 
-0.5421270418951405 5:1.0 9:1.0 14:1.0 22:1.0 36:1.0 40:1.0 47:1.0 63:1.0 67:1.0 73:1.0 74:1.0 76:1.0 80:1.0 83:1.0 
-0.4849791859053441 2:1.0 6:1.0 16:1.0 22:1.0 36:1.0 40:1.0 54:1.0 63:1.0 67:1.0 73:1.0 75:1.0 76:1.0 82:1.0 105:1.0 
-0.47628077627322823 2:1.0 7:1.0 17:1.0 22:1.0 36:1.0 40:1.0 50:1.0 63:1.0 67:1.0 73:1.0 74:1.0 76:1.0 80:1.0 83:1.0 
-0.4776225431740495 5:1.0 7:1.0 17:1.0 22:1.0 36:1.0 40:1.0 48:1.0 63:1.0 67:1.0 73:1.0 74:1.0 76:1.0 82:1.0 83:1.0 
-0.4750277661876769 3:1.0 6:1.0 16:1.0 22:1.0 36:1.0 42:1.0 55:1.0 64:1.0 67:1.0 72:1.0 74:1.0 76:1.0 80:1.0 83:1.0 
-0.48477766820913143 1:1.0 6:1.0 18:1.0 19:1.0 39:1.0 42:1.0 52:1.0 64:1.0 67:1.0 73:1.0 74:1.0 76:1.0 81:1.0 83:1.0 
-0.48443814927757095 5:1.0 6:1.0 15:1.0 34:1.0 35:1.0 42:1.0 54:1.0 64:1.0 67:1.0 73:1.0 74:1.0 76:1.0 80:1.0 107:1.0 
-0.4764243780307241 2:1.0 6:1.0 15:1.0 26:1.0 35:1.0 40:1.0 56:1.0 63:1.0 69:1.0 73:1.0 74:1.0 76:1.0 80:1.0 83:1.0 
-0.5041398813075781 4:1.0 8:1.0 16:1.0 22:1.0 36:1.0 40:1.0 57:1.0 63:1.0 67:1.0 73:1.0 74:1.0 76:1.0 82:1.0 83:1.0 
-0.49742831115746133 5:1.0 6:1.0 15:1.0 22:1.0 36:1.0 40:1.0 59:1.0 63:1.0 67:1.0 73:1.0 74:1.0 76:1.0 80:1.0 83:1.0 
-0.48512263540047146 2:1.0 6:1.0 17:1.0 22:1.0 36:1.0 42:1.0 55:1.0 66:1.0 67:1.0 72:1.0 74:1.0 76:1.0 79:1.0 86:1.0 
-0.5421517900795934 5:1.0 7:1.0 14:1.0 19:1.0 39:1.0 40:1.0 52:1.0 63:1.0 67:1.0 73:1.0 74:1.0 76:1.0 82:1.0 83:1.0 
-0.4841656760492734 1:1.0 6:1.0 15:1.0 22:1.0 36:1.0 42:1.0 54:1.0 64:1.0 67:1.0 72:1.0 74:1.0 76:1.0 78:1.0 83:1.0 
-0.5307795653725521 4:1.0 6:1.0 14:1.0 22:1.0 36:1.0 40:1.0 57:1.0 63:1.0 67:1.0 73:1.0 74:1.0 76:1.0 82:1.0 83:1.0 
-0.484439359980512 4:1.0 6:1.0 14:1.0 22:1.0 36:1.0 42:1.0 48:1.0 64:1.0 67:1.0 72:1.0 74:1.0 76:1.0 82:1.0 83:1.0 
-0.48373682776874727 3:1.0 8:1.0 15:1.0 22:1.0 36:1.0 40:1.0 57:1.0 63:1.0 67:1.0 73:1.0 74:1.0 76:1.0 82:1.0 83:1.0 
-0.4867958185025384 2:1.0 6:1.0 18:1.0 22:1.0 36:1.0 40:1.0 48:1.0 63:1.0 67:1.0 73:1.0 74:1.0 76:1.0 82:1.0 83:1.0 
-0.4843059566248984 5:1.0 9:1.0 17:1.0 19:1.0 39:1.0 42:1.0 55:1.0 64:1.0 67:1.0 73:1.0 74:1.0 77:1.0 80:1.0 83:1.0 
-0.4843115196722306 1:1.0 6:1.0 18:1.0 19:1.0 39:1.0 42:1.0 55:1.0 62:1.0 67:1.0 72:1.0 74:1.0 76:1.0 80:1.0 83:1.0 
-0.48492517253948036 2:1.0 10:1.0 18:1.0 19:1.0 39:1.0 42:1.0 52:1.0 64:1.0 67:1.0 72:1.0 74:1.0 76:1.0 81:1.0 83:1.0 
-0.4843534447829146 1:1.0 17:1.0 19:1.0 39:1.0 42:1.0 62:1.0 67:1.0 73:1.0 74:1.0 76:1.0 78:1.0 83:1.0 
-0.48406521408885567 1:1.0 6:1.0 15:1.0 21:1.0 35:1.0 42:1.0 49:1.0 62:1.0 71:1.0 73:1.0 74:1.0 76:1.0 78:1.0 83:1.0 
-0.4849861489425775 2:1.0 6:1.0 14:1.0 19:1.0 39:1.0 40:1.0 47:1.0 63:1.0 67:1.0 73:1.0 74:1.0 76:1.0 78:1.0 83:1.0 
-0.47587805543722883 2:1.0 6:1.0 17:1.0 22:1.0 36:1.0 41:1.0 54:1.0 66:1.0 67:1.0 73:1.0 74:1.0 76:1.0 80:1.0 83:1.0 
-0.48497206440646773 5:1.0 6:1.0 14:1.0 20:1.0 37:1.0 41:1.0 48:1.0 64:1.0 71:1.0 72:1.0 74:1.0 76:1.0 81:1.0 83:1.0 
-0.4845613899676534 3:1.0 6:1.0 17:1.0 22:1.0 36:1.0 43:1.0 57:1.0 65:1.0 67:1.0 73:1.0 74:1.0 76:1.0 82:1.0 103:1.0 
-0.47415458572755975 1:1.0 6:1.0 18:1.0 20:1.0 37:1.0 42:1.0 57:1.0 62:1.0 67:1.0 73:1.0 74:1.0 76:1.0 80:1.0 83:1.0 
-0.4666211006782239 1:1.0 6:1.0 18:1.0 20:1.0 37:1.0 42:1.0 56:1.0 62:1.0 67:1.0 73:1.0 74:1.0 76:1.0 78:1.0 83:1.0 
-0.4849703655852814 3:1.0 11:1.0 15:1.0 22:1.0 36:1.0 43:1.0 48:1.0 64:1.0 67:1.0 73:1.0 74:1.0 76:1.0 81:1.0 83:1.0 
-0.48409305112963313 5:1.0 6:1.0 16:1.0 22:1.0 36:1.0 42:1.0 49:1.0 64:1.0 71:1.0 72:1.0 74:1.0 76:1.0 79:1.0 83:1.0 
-0.4573757996891602 1:1.0 6:1.0 17:1.0 22:1.0 36:1.0 42:1.0 50:1.0 62:1.0 67:1.0 72:1.0 74:1.0 76:1.0 78:1.0 83:1.0 
-0.48478505474473044 1:1.0 17:1.0 31:1.0 35:1.0 42:1.0 62:1.0 71:1.0 73:1.0 74:1.0 76:1.0 80:1.0 83:1.0 
-0.4842631151831966 3:1.0 6:1.0 16:1.0 19:1.0 39:1.0 44:1.0 52:1.0 64:1.0 67:1.0 72:1.0 74:1.0 76:1.0 82:1.0 83:1.0 
-0.4841632657418896 3:1.0 10:1.0 17:1.0 22:1.0 36:1.0 40:1.0 48:1.0 63:1.0 67:1.0 73:1.0 74:1.0 76:1.0 80:1.0 
-0.48478570194479104 2:1.0 14:1.0 20:1.0 37:1.0 43:1.0 64:1.0 67:1.0 73:1.0 74:1.0 76:1.0 82:1.0 83:1.0 
-0.4847570068711666 4:1.0 6:1.0 14:1.0 19:1.0 39:1.0 42:1.0 55:1.0 62:1.0 67:1.0 72:1.0 74:1.0 76:1.0 79:1.0 83:1.0 
-0.48505736587545795 2:1.0 6:1.0 15:1.0 27:1.0 35:1.0 41:1.0 53:1.0 65:1.0 67:1.0 73:1.0 74:1.0 76:1.0 82:1.0 83:1.0 
-0.46688310713942943 1:1.0 6:1.0 17:1.0 22:1.0 36:1.0 42:1.0 49:1.0 62:1.0 67:1.0 72:1.0 74:1.0 76:1.0 80:1.0 83:1.0 
-0.483613374013096 1:1.0 6:1.0 18:1.0 21:1.0 35:1.0 42:1.0 58:1.0 62:1.0 67:1.0 72:1.0 74:1.0 76:1.0 78:1.0 83:1.0 
-0.48462652639385856 5:1.0 6:1.0 16:1.0 22:1.0 36:1.0 42:1.0 51:1.0 64:1.0 67:1.0 72:1.0 74:1.0 76:1.0 79:1.0 83:1.0 
-0.48784027440970906 2:1.0 6:1.0 15:1.0 19:1.0 39:1.0 40:1.0 52:1.0 63:1.0 67:1.0 73:1.0 74:1.0 76:1.0 82:1.0 83:1.0 
-0.4844845302692916 3:1.0 6:1.0 14:1.0 31:1.0 35:1.0 42:1.0 50:1.0 66:1.0 67:1.0 72:1.0 74:1.0 76:1.0 79:1.0 
-0.4843334835689048 5:1.0 10:1.0 16:1.0 33:1.0 35:1.0 40:1.0 59:1.0 63:1.0 67:1.0 73:1.0 74:1.0 76:1.0 78:1.0 83:1.0 
-0.4847220463087457 1:1.0 6:1.0 14:1.0 20:1.0 37:1.0 45:1.0 50:1.0 66:1.0 67:1.0 72:1.0 74:1.0 76:1.0 80:1.0 83:1.0 
-0.5128406325144009 4:1.0 10:1.0 14:1.0 19:1.0 39:1.0 40:1.0 52:1.0 61:1.0 67:1.0 72:1.0 74:1.0 76:1.0 81:1.0 83:1.0 
-0.48440138590761883 2:1.0 6:1.0 15:1.0 33:1.0 35:1.0 42:1.0 57:1.0 64:1.0 67:1.0 73:1.0 74:1.0 76:1.0 80:1.0 112:1.0 
-0.4847971761148249 3:1.0 6:1.0 17:1.0 19:1.0 39:1.0 41:1.0 52:1.0 64:1.0 67:1.0 72:1.0 74:1.0 76:1.0 80:1.0 83:1.0 
-0.46843708697294595 2:1.0 6:1.0 18:1.0 22:1.0 36:1.0 40:1.0 48:1.0 63:1.0 67:1.0 73:1.0 74:1.0 76:1.0 80:1.0 83:1.0 
-0.47506153733453327 4:1.0 6:1.0 18:1.0 22:1.0 36:1.0 40:1.0 57:1.0 63:1.0 67:1.0 73:1.0 74:1.0 76:1.0 80:1.0 83:1.0 
-0.5034336585466954 4:1.0 10:1.0 16:1.0 22:1.0 36:1.0 40:1.0 57:1.0 63:1.0 67:1.0 73:1.0 74:1.0 76:1.0 82:1.0 83:1.0 
-0.4851048668529517 4:1.0 6:1.0 15:1.0 27:1.0 35:1.0 40:1.0 52:1.0 61:1.0 67:1.0 72:1.0 74:1.0 76:1.0 81:1.0 83:1.0 
-0.48506836719820207 2:1.0 6:1.0 17:1.0 29:1.0 39:1.0 42:1.0 51:1.0 62:1.0 67:1.0 73:1.0 74:1.0 76:1.0 79:1.0 83:1.0 
-0.44944410817081887 1:1.0 6:1.0 16:1.0 20:1.0 37:1.0 42:1.0 49:1.0 62:1.0 67:1.0 73:1.0 74:1.0 76:1.0 78:1.0 83:1.0 
-0.4850799935345189 1:1.0 6:1.0 17:1.0 19:1.0 39:1.0 42:1.0 52:1.0 64:1.0 67:1.0 73:1.0 74:1.0 76:1.0 78:1.0 85:1.0 
-0.47547369699328734 5:1.0 6:1.0 17:1.0 33:1.0 35:1.0 40:1.0 57:1.0 63:1.0 67:1.0 73:1.0 74:1.0 76:1.0 80:1.0 83:1.0 
-0.5195875266576198 4:1.0 6:1.0 16:1.0 22:1.0 36:1.0 40:1.0 48:1.0 63:1.0 67:1.0 73:1.0 74:1.0 76:1.0 80:1.0 83:1.0 
-0.48546446917375213 2:1.0 6:1.0 15:1.0 22:1.0 36:1.0 40:1.0 48:1.0 61:1.0 67:1.0 72:1.0 74:1.0 76:1.0 81:1.0 83:1.0 
-0.48436897638322757 1:1.0 6:1.0 14:1.0 22:1.0 36:1.0 42:1.0 48:1.0 64:1.0 67:1.0 73:1.0 74:1.0 77:1.0 80:1.0 83:1.0 
-0.48420854091694765 1:1.0 6:1.0 16:1.0 20:1.0 37:1.0 42:1.0 52:1.0 62:1.0 67:1.0 72:1.0 75:1.0 76:1.0 78:1.0 83:1.0 
-0.484498268309279 5:1.0 6:1.0 14:1.0 20:1.0 37:1.0 41:1.0 49:1.0 66:1.0 71:1.0 72:1.0 74:1.0 76:1.0 81:1.0 83:1.0 
-0.4840554920220327 1:1.0 6:1.0 18:1.0 22:1.0 36:1.0 40:1.0 50:1.0 65:1.0 67:1.0 73:1.0 74:1.0 76:1.0 78:1.0 83:1.0 
-0.46561718329684 1:1.0 6:1.0 17:1.0 22:1.0 36:1.0 42:1.0 49:1.0 62:1.0 67:1.0 73:1.0 74:1.0 76:1.0 78:1.0 83:1.0 
-0.4754811059652776 3:1.0 7:1.0 16:1.0 22:1.0 36:1.0 40:1.0 48:1.0 63:1.0 67:1.0 73:1.0 74:1.0 76:1.0 80:1.0 83:1.0 
-0.48552456775501657 4:1.0 6:1.0 14:1.0 24:1.0 38:1.0 40:1.0 48:1.0 63:1.0 67:1.0 73:1.0 74:1.0 76:1.0 81:1.0 83:1.0 
-0.48444782289157223 2:1.0 6:1.0 15:1.0 22:1.0 36:1.0 42:1.0 48:1.0 64:1.0 67:1.0 73:1.0 74:1.0 76:1.0 80:1.0 114:1.0 
-0.4849336814285958 2:1.0 6:1.0 17:1.0 22:1.0 36:1.0 40:1.0 54:1.0 63:1.0 67:1.0 73:1.0 74:1.0 76:1.0 80:1.0 86:1.0 
-0.46572677467648327 2:1.0 6:1.0 15:1.0 22:1.0 36:1.0 42:1.0 48:1.0 62:1.0 67:1.0 73:1.0 74:1.0 76:1.0 80:1.0 83:1.0 
-0.4870712826154294 2:1.0 7:1.0 18:1.0 19:1.0 39:1.0 40:1.0 50:1.0 63:1.0 67:1.0 73:1.0 74:1.0 76:1.0 82:1.0 83:1.0 
-0.4845456459713235 3:1.0 6:1.0 14:1.0 22:1.0 36:1.0 42:1.0 50:1.0 62:1.0 67:1.0 72:1.0 74:1.0 76:1.0 80:1.0 83:1.0 
-0.47625810778738725 4:1.0 6:1.0 16:1.0 22:1.0 36:1.0 43:1.0 54:1.0 66:1.0 71:1.0 72:1.0 74:1.0 76:1.0 80:1.0 83:1.0 
-0.46681521024618583 1:1.0 6:1.0 18:1.0 20:1.0 37:1.0 42:1.0 55:1.0 64:1.0 67:1.0 73:1.0 74:1.0 76:1.0 80:1.0 83:1.0 
-0.47528971497698524 2:1.0 7:1.0 14:1.0 19:1.0 39:1.0 42:1.0 52:1.0 64:1.0 67:1.0 73:1.0 74:1.0 76:1.0 82:1.0 83:1.0 
-0.48450482558640173 3:1.0 7:1.0 18:1.0 20:1.0 37:1.0 42:1.0 50:1.0 64:1.0 67:1.0 73:1.0 74:1.0 76:1.0 82:1.0 83:1.0 
-0.5420289065157317 5:1.0 18:1.0 20:1.0 37:1.0 40:1.0 63:1.0 67:1.0 73:1.0 74:1.0 76:1.0 80:1.0 83:1.0 
-0.4851675327502755 2:1.0 6:1.0 16:1.0 22:1.0 36:1.0 40:1.0 57:1.0 63:1.0 67:1.0 73:1.0 74:1.0 76:1.0 80:1.0 83:1.0 
-0.48472940809417286 3:1.0 6:1.0 16:1.0 20:1.0 37:1.0 40:1.0 49:1.0 61:1.0 67:1.0 72:1.0 74:1.0 76:1.0 78:1.0 83:1.0 
-0.4844016488295827 2:1.0 6:1.0 17:1.0 20:1.0 37:1.0 42:1.0 52:1.0 64:1.0 71:1.0 72:1.0 75:1.0 76:1.0 82:1.0 83:1.0 
-0.48489786797695883 3:1.0 11:1.0 18:1.0 22:1.0 36:1.0 40:1.0 55:1.0 63:1.0 67:1.0 73:1.0 75:1.0 76:1.0 80:1.0 83:1.0 
-0.4872753190039211 5:1.0 8:1.0 16:1.0 19:1.0 39:1.0 40:1.0 51:1.0 63:1.0 67:1.0 73:1.0 74:1.0 76:1.0 80:1.0 83:1.0 
-0.484937243811296 3:1.0 6:1.0 17:1.0 22:1.0 36:1.0 43:1.0 49:1.0 66:1.0 71:1.0 72:1.0 74:1.0 76:1.0 79:1.0 83:1.0 
-0.4753888489497261 1:1.0 15:1.0 22:1.0 36:1.0 42:1.0 62:1.0 67:1.0 73:1.0 74:1.0 76:1.0 78:1.0 83:1.0 
-0.48439054891423633 3:1.0 6:1.0 14:1.0 20:1.0 37:1.0 42:1.0 56:1.0 66:1.0 67:1.0 73:1.0 74:1.0 76:1.0 82:1.0 83:1.0 
-0.4843958945790579 4:1.0 6:1.0 18:1.0 20:1.0 37:1.0 40:1.0 56:1.0 61:1.0 67:1.0 72:1.0 74:1.0 76:1.0 78:1.0 83:1.0 
-0.45853641345256646 3:1.0 6:1.0 16:1.0 22:1.0 36:1.0 40:1.0 48:1.0 63:1.0 67:1.0 73:1.0 74:1.0 76:1.0 80:1.0 83:1.0 
-0.4844952034690595 3:1.0 10:1.0 16:1.0 22:1.0 36:1.0 42:1.0 52:1.0 66:1.0 71:1.0 72:1.0 74:1.0 76:1.0 79:1.0 83:1.0 
-0.4751092021678062 5:1.0 6:1.0 14:1.0 22:1.0 36:1.0 44:1.0 55:1.0 66:1.0 67:1.0 72:1.0 74:1.0 76:1.0 80:1.0 83:1.0 
-0.48512688784418856 4:1.0 11:1.0 16:1.0 29:1.0 39:1.0 42:1.0 52:1.0 62:1.0 67:1.0 72:1.0 74:1.0 76:1.0 79:1.0 83:1.0 
-0.4834128178891825 2:1.0 6:1.0 15:1.0 33:1.0 35:1.0 40:1.0 53:1.0 63:1.0 67:1.0 73:1.0 74:1.0 76:1.0 82:1.0 103:1.0 
-0.48477385077634744 2:1.0 18:1.0 22:1.0 36:1.0 42:1.0 66:1.0 67:1.0 72:1.0 74:1.0 76:1.0 78:1.0 83:1.0 
-0.4849249191310753 5:1.0 6:1.0 17:1.0 22:1.0 36:1.0 40:1.0 53:1.0 63:1.0 71:1.0 73:1.0 74:1.0 76:1.0 80:1.0 
-0.48455940834415273 5:1.0 6:1.0 16:1.0 34:1.0 35:1.0 42:1.0 54:1.0 64:1.0 67:1.0 73:1.0 74:1.0 76:1.0 78:1.0 83:1.0 
